34 128
0 -0.4791516001990521 -0.7728970396104524 0.19581515115552312 0.04594170396614004 -0.04133101236315213 -0.1566904766391764 -0.006920618409259018 1.6453896689488253e-14 -0.2519156862351667 -0.06815875766844576 0.11761914773124416 -0.058089846209244345 0.027643035621307262 -0.06931236149247165 0.10432710744407471 0.04246605740711574 0.0026123156530730818 -0.03156777683509179 -0.026923242954809433 -0.0031051385675079993 -0.03063048390071104 -0.005821495153021571 1.3779276889743323e-25 8.710898970363379e-26 2.206561266891699e-25 -8.01417924762527e-25 4.387192712079461e-26 -3.048522379620691e-25 2.678690746161837e-25 -1.1331765472542035e-25 1.3200539339426838e-25 3.1356507851854375e-25 -0.6929318227405896 0.5312789222441936 -0.15025420455277783 -0.06309143243834832 0.1188655186619929 -0.17308896843281482 0.2237404507585599 -9.35817701209128e-17 0.08058864400419467 0.232072267700982 0.06802503933818074 0.14619525231511554 0.005493173164746182 -0.06018349473306579 -0.06666056359333837 0.037651973302340186 -0.012137932409175598 -0.09137862163413915 4.232386285354825e-18 -0.02567723817649696 0.10279238707781833 -0.021568679645867755 0.012810540993057952 0.010578231979569148 -0.012776412858224043 -0.016338724682960173 0.0055975980165461625 0.003438968437170572 -0.008896635861745359 6.594988028598717e-24 5.373298061739507e-24 6.389722286254151e-25 -0.68828125168235 -0.6795882483936895 -0.03724075542790825 -0.006056398130773384 -0.06890684483253008 -0.12880657482218366 9.003275916665989e-17 0.009735476120540877 -0.07061774670927161 0.017962675307635734 -0.05421666409181321 0.12781212115641924 0.02423640104296376 0.024298625818111787 -0.0543969617556604 -0.052383159490047446 -0.09438133519519164 0.01860356743250671 0.026611369323849367 0.00015356854609669906 -0.00969574119341577 0.004019620300500775 0.005659719467842356 -9.929893108415747e-17 -0.00022116303575505893 -0.0009935275934828001 -1.4837434780821828e-24 1.9744241507277683e-24 3.1705023414307743e-24 -2.604509724937342e-25 2.580155483156144e-25 1.1867827661314302e-25 -0.7632744295306308 0.5883743793778239 0.04478121136647329 0.1162190736607852 0.05685003282466951 -0.03459610442287463 -1.1829164266715987e-16 -0.12490974325737733 -0.1275530548654298 0.06177156787487165 -0.022010993998844364 -0.017220854187559666 0.06005007798586711 0.006284110693783163 -0.027521018112292715 -0.07776069148037491 0.025090751443926602 0.03359684376255409 0.03559672560685354 -0.013365780399237553 0.01869029869595949 -0.009985376485478429 -0.018222774287630583 -0.015013151370654872 2.936236600698682e-17 0.006050666946265651 -0.010989928356185036 0.00032823577969972776 -1.4128491851825026e-22 9.373682086377556e-24 1.7904738001501298e-24 -1.7424800143839488e-24
31 -0.10776357388481694 0.04095665843697883 -0.42542390578495726 0.42700990648048465 -0.37776941359393357 -0.12672226448790702 0.12972092624393733 -9.747276110891877e-15 0.12750648707138323 0.22060173718210008 -0.061176399347835225 -0.4556846276294426 -0.2469899303815199 -0.22611483479381286 0.022194056786915287 0.1778337726228376 -0.010132513653965277 -0.07254750869532205 0.05539992858360593 0.1337984930959716 0.02344965033667249 0.018452813081158394 2.258960188171516e-24 1.5719143131466046e-24 -5.442821710840719e-25 -4.551593631307909e-25 -1.3512455484657672e-24 1.413077715927615e-24 2.2481360114654184e-25 4.3364035119916685e-26 1.1400925545728835e-24 4.029431199876999e-25 -0.42518377540742314 -0.46632538255368927 -0.057687263066605036 0.3107362028390031 -0.17614279751856446 0.37525391015503173 0.3632556504262124 -4.554660101992023e-16 -0.14800636436033285 -0.1425769989449806 -0.1379216949410302 -0.18188844782758315 -0.19617527468274693 -0.12813242126320992 -0.06200929954683825 0.00813669926911111 0.1330959063444101 -0.08759991764777482 1.973049130176e-17 -0.04858559391826544 0.05241136290175322 0.018662563499210773 0.0883883240357203 0.04170856864107747 0.03733030626953515 -0.014022846976938341 0.044062809956878925 0.03099049127775965 0.005994476791007455 -2.0221540157490967e-23 -1.3439321502095727e-23 3.644074723964957e-24 -0.20395912107506234 0.22024249900080678 0.19738810474756607 0.7612875211047403 -0.24007308389275756 -0.04042321544207524 2.2869076490248085e-16 0.07119402453473327 0.1366335566890591 -0.3543529178327361 0.10317222592605625 -0.04746835466394771 0.007809934129549508 0.005735489976526731 0.1870026900145649 0.0008968770932377256 -0.1764202008198354 -0.05483754353210174 -0.007811168170371701 -0.017337717656862664 0.0026619359508891958 -0.009617199258856762 0.013431863677576887 -2.4166927688515394e-16 -0.006156776625075814 -0.005246789817486879 -5.131935188547163e-24 7.331480058013465e-24 -1.1782232162025174e-24 -2.7139681138077388e-24 -2.994108223330873e-25 -5.3635738139031125e-25 -0.4734447281694482 -0.4578376102614028 -0.22711308678330427 -0.45717085281083647 0.2104761288422583 -0.37275311403059763 -2.4994381862803907e-16 -0.14980061889973303 -0.04123777690784585 0.07036930229383419 0.18352030692640492 -0.0945547346486867 -0.10381960989226244 -0.08855733244702434 0.025689129490447233 0.12300509540001497 0.0831191770075929 -0.04659752661638947 0.01505060324298371 -0.012514885776876873 -0.0014275312739012059 -0.03562401761159746 0.02148138723255676 -0.06427670212493218 -3.914055575931444e-17 0.026393104416874445 -0.015578347120639314 -0.0036829043015210046 -2.7044645147688572e-22 -2.6789377832733574e-24 1.3077648866062085e-24 -2.9712368576777416e-24
21 -0.05184801899259648 -0.10717034712661877 -0.15860789329912506 0.0486251256539677 -0.016963994891091475 0.436545023678033 -0.19608890091858713 3.263629968200288e-15 -0.019463855225556995 -0.022775781684065594 0.05753450752713413 0.09724527961666987 -0.4878699924283711 -0.2076818759902353 0.2027416335190743 -0.540294116261434 0.10158382506276664 0.057913422868273084 -0.12060048902724028 0.1018431472827325 -0.22777733750891332 0.10338156469504253 -1.1226067916178595e-08 -6.114199474354113e-09 9.228572970958594e-09 1.8031664774275698e-09 -6.101137727471827e-10 -1.802847843202412e-09 -4.66074124449114e-10 3.9877815318367356e-09 -6.299984540481102e-09 -3.667533488163521e-10 -0.23212573487130334 0.12400012177645592 0.44113822907823746 0.06135980704827468 -0.2647603578829513 0.2973820495945624 -0.4428793653891031 3.7316266685135374e-16 -0.30622945314749606 0.23963701066938528 -0.05291068667231774 -0.05531582750957794 0.07785790315230387 -0.234065897584736 0.12228140243213792 0.1464912488435541 -0.09929071025168218 -0.11998640191226448 -1.078114983299575e-15 0.27378385914554393 -0.0027493335505292113 -0.09623521945859169 0.09236407153137476 0.06340309562422233 -0.021685477923226573 0.035022724842963364 -0.005049684260855604 -0.02434989701463001 -0.0051384821249171545 1.666573479351328e-08 1.2048614693483293e-08 -6.680998742185774e-10 -0.037283385641859054 -0.07185076015613778 -0.0819442010407975 0.09097093513195745 -0.019259391475224503 0.3553581589827107 -9.269283152015823e-16 -0.3687199163449288 -0.012139643352669942 0.0722555243907797 0.060227817711621646 0.23257022450640774 0.004291195617763407 0.7320761558860869 0.26142073686646566 -0.05990009877470636 0.12565536874252134 -0.057404851558741574 0.11353678490103589 -0.0064149643292485846 0.023499155954032205 -0.05650812655081661 -0.005775947278899375 -2.2902762228454294e-16 0.08934651461587824 -0.0332713599387057 -4.2969865337102073e-08 -1.85552578512263e-08 -1.969101279905306e-08 2.3213258339854117e-09 3.091016690100228e-09 -3.877468799023832e-09 -0.07085097092071635 0.0883416126742284 0.14332770478800153 -0.15992258789499705 0.08694318177429171 -0.13590250106593846 3.777105947349814e-16 0.38416002954884304 0.19360000540868555 -0.06486011638543168 -0.2300553430151568 -0.44875864950184857 0.30925111737191996 -0.13941287135994285 0.4375556583322698 -0.11433073738598053 0.19275650657787524 -0.09451478228683151 -0.08899561077227623 -0.2868943444128193 0.09601976079473185 0.004673773082337946 0.01339721190119034 0.07107038847556768 7.467317187132652e-16 0.031620527564295835 0.00441328620992373 0.006773838735826518 8.764552634429358e-08 1.5213410960942752e-08 1.4226485402838548e-09 -8.268329853539381e-10
19 -0.05433814046249813 -0.08583050061205454 -0.15679849216262592 0.07701053340628751 -0.09336146918131166 0.4196773462876748 -0.21302556557103178 1.4933786079412329e-15 0.015044841125721296 -0.14529684343393887 0.07026459895077719 0.007100430022629993 -0.31501507396790457 -0.19258328732676394 0.1428479689796755 -0.49126758487920275 0.15216910605369535 0.04442977398974911 -0.10181426944048381 0.19190875671896696 -0.039288800835493555 -0.48028465762935374 8.276657240857207e-09 2.1053922294668764e-09 1.3944368226596312e-09 -6.1469848448695865e-09 6.705936873533881e-09 -8.053339635086247e-09 6.045738806551441e-09 1.520348381081476e-09 -4.8245287050673065e-09 -2.5579715258711644e-09 -0.24529054507431008 0.11059380344731419 0.4609066913449534 0.08768893636852808 -0.26510646724154463 0.27613432183560915 -0.4366850948733339 2.2598051464215517e-16 -0.2730380500960288 0.2561357495453774 -0.002382157236476917 -0.010108251930810958 0.030654253793408647 -0.18551266415185705 0.0238143150375374 0.2687724679385612 0.023293493570109083 0.1303039343811015 9.389941751436677e-16 -0.22099785167116304 0.026496283678465467 0.03625219588993253 -0.13189699702893556 -0.04851238049086266 -0.10125393201084619 -0.13684912175266703 0.024990562985879046 0.036160951191434615 0.052798992091219396 -5.581046149919058e-23 -4.201273113898601e-23 1.8050967965114887e-24 -0.03850470333240395 -0.07443830053887812 -0.079383020117707 0.09444116870048402 -0.019684881631949674 0.36418403517455394 -9.8267618952439e-16 -0.3731703074562245 -0.010411609796752399 0.06158390729070962 0.06653558420231055 0.20798986040389603 -0.0220964074123678 0.7202708670505253 0.2588958568938585 -0.06922978431560425 0.1060713682590319 -0.0691075966738152 0.050307949112206145 0.10173204597105968 0.07942781360214567 0.01632826083552203 0.09624986598054702 9.938570379514877e-16 0.1199516541254377 0.06050519599739117 -5.514018184770857e-09 2.568143862998818e-08 1.1888726327199328e-08 3.1163722879123026e-10 -3.306969991317191e-09 2.3512566668281047e-09 -0.1349806635827003 0.12133745574832597 0.2565526091888807 -0.26160830702721133 0.1330640830095518 -0.1748713245163787 8.052055908548682e-16 0.49078060590530503 0.08918303165161567 0.22546905168869205 -0.17126822927970012 -0.27087276009034994 0.3219228443253847 -0.07204257867900013 0.043204677442166425 0.02160467473427657 0.19804991531501134 -0.18823834150537333 0.30201168936373046 0.256281885939923 -0.14423549745625727 -0.020662988674103436 -0.053361796491671956 -0.004862516165713378 5.874697034128731e-16 -0.12199134514049975 0.018942574201112446 -0.01017147941243843 -2.7837109983360158e-21 1.6984881132785813e-25 1.6206512585337506e-24 -1.847111398976095e-24
17 -0.05184801899259521 -0.1071703471266188 -0.1586078932991248 0.04862512565396794 -0.016963994891091478 0.4365450236780341 -0.196088900918587 3.125440884289659e-15 -0.01946385522555717 -0.022775781684065632 0.057534507527133835 0.09724527961666979 -0.4878699924283708 -0.20768187599023552 0.20274163351907395 -0.5402941162614338 0.10158382506276666 0.05791342286827241 -0.12060048902724015 0.10184314728273235 -0.22777733750891352 0.1033815646950422 -1.345420499731974e-09 -1.8356140754436353e-09 -5.810266437974254e-09 5.443980013308956e-09 5.692503466347797e-09 2.371235814167904e-10 -1.4296650824840676e-08 -3.0304301424573576e-09 1.8221420715845033e-08 5.419178554091835e-09 -0.23212573487130342 0.12400012177645627 0.44113822907823763 0.06135980704827525 -0.2647603578829512 0.2973820495945624 -0.4428793653891027 4.953401476075271e-16 -0.3062294531474959 0.23963701066938478 -0.052910686672317554 -0.05531582750957788 0.07785790315230362 -0.23406589758473603 0.12228140243213767 0.14649124884355408 -0.09929071025168253 -0.11998640191226445 -9.692034380163343e-16 0.2737838591455444 -0.0027493335505291818 -0.09623521945859197 0.09236407153137464 0.06340309562422279 -0.021685477923226837 0.03502272484296297 -0.0050496842608553855 -0.0243498970146314 -0.005138482124918657 -1.666573479351323e-08 -1.2048614693483253e-08 6.680998742185718e-10 -0.0372833856418581 -0.07185076015613912 -0.08194420104079632 0.0909709351319574 -0.019259391475224534 0.3553581589827106 -3.917555362052255e-16 -0.36871991634492735 -0.012139643352670456 0.07225552439077966 0.060227817711621785 0.23257022450640785 0.004291195617764415 0.7320761558860867 0.2614207368664657 -0.059900098774705944 0.12565536874252098 -0.05740485155874045 0.1135367849010349 -0.006414964329246654 0.023499155954032416 -0.056508126550816745 -0.00577594727889847 2.4592383740420266e-15 0.0893465146158795 -0.03327135993870679 5.006207109808744e-08 -3.910046570818077e-08 -7.199320607454274e-09 -8.315792617635807e-10 4.887870433262643e-09 -9.706254423192473e-10 -0.07085097092071609 0.08834161267422884 0.14332770478800053 -0.1599225878949954 0.08694318177429187 -0.1359025010659388 4.268923880079085e-16 0.384160029548844 0.19360000540868552 -0.06486011638543039 -0.23005534301515626 -0.44875864950184674 0.30925111737192 -0.1394128713599423 0.4375556583322699 -0.11433073738597889 0.1927565065778758 -0.09451478228683166 -0.08899561077227273 -0.28689434441281897 0.09601976079473129 0.004673773082339189 0.013397211901194117 0.07107038847557051 -2.029664228053704e-15 0.03162052756432476 0.004413286209945726 0.006773838735868612 -8.764552634429042e-08 -1.5213410960942726e-08 -1.4226485402838565e-09 8.26832985353939e-10
13 -0.127364787015612 -0.20299002234511793 -0.2169689525360747 -0.04750470787839761 -0.23798239045636604 0.5893784956229623 -0.31725969553040684 -8.240177388838856e-15 0.18271805033162727 -0.0507056761981869 0.3954846583411657 0.20193023832611487 -0.14582864046294797 -0.015474363718011338 0.04359522464007795 0.2179170034352295 0.09821003046131704 -0.13790696991098725 0.0001672657113961616 -0.08560980635041719 0.1702980499896203 -0.1398426236882217 -1.062008995967133e-08 8.658805140542463e-09 -5.577709763393905e-09 -2.7058027782113996e-09 -2.2891668017054827e-10 5.99210723553073e-09 1.7853921170108279e-09 -7.835617516612163e-11 7.234182011483391e-10 -3.376700535739054e-10 -0.42408919043999466 0.15604818879015825 0.5935347682184727 -0.05243352822646603 -0.4027308953631397 0.08192520411960867 -0.21318309550850495 1.9060743453095462e-16 0.26050152884207645 -0.13325943523091496 0.16052226304838335 0.1406457697499139 -0.025511846597421648 0.1476598673670713 -0.05183495050126976 0.045876634492365405 0.13531354653315666 0.020276645799647306 4.2987837226676286e-16 -0.16002740074255126 -0.01290225352901263 0.023984397914209223 0.014508817758865807 0.02944215424933049 -0.032987268526730965 0.11851794324716795 0.07478662367613009 -0.03309889352557282 -0.005294990960657693 1.924138505990088e-23 1.4354848399597515e-23 -2.900048333330952e-24 -0.12420721801473149 -0.14955899747842802 -0.20171920774653004 0.1675792058007533 -0.11558372890829881 0.5994198459944963 -1.4058719327537593e-15 -0.5623366875558485 -0.270078923351976 -0.0752873743766393 -0.21739710165394657 -0.12758005542215872 0.03003803167556546 -0.12250406745744141 0.03680524842347798 -0.009368845244933697 -0.01809493550228597 -0.027347802838853633 0.1278845411149136 -0.02333222867620161 0.10032233256376956 0.1098649639347586 0.01928640629025962 -8.612915794676084e-16 -0.05990182056194356 0.031221410991221454 -2.4461808971120348e-09 -5.155907237439925e-09 -2.5210593122335113e-09 1.4088497246267418e-09 1.0366659406102517e-09 -1.8268259760935746e-10 -0.37475736243349045 0.1605929183847658 0.5063851781844828 -0.41191495226763547 0.28000291892136053 -0.06070597542238972 1.5632947758834117e-16 0.39585713509351117 -0.2942691832477029 0.08992208277309556 -0.0404147835668068 0.1357696482172706 -0.11265889078506461 0.08933932193146987 -0.06105392462528635 0.0011770847063634247 -0.046766540947948694 -0.05013731240852196 -0.06937716658054907 -0.04839731531949926 0.050919990288635884 0.001955128581840595 0.09867116382200612 0.014662518747054949 -2.444299061514961e-16 -0.064107100334599 -0.03482246280565252 0.001145495749759658 -1.823324553133718e-21 3.289403983282382e-23 2.8507370312903857e-24 -3.710013329712115e-24
12 -0.0644766363190287 -0.1276039044444909 -0.14205791564735124 -0.043066116476519395 -0.023574691029358524 0.23974554188516997 -0.09254290513466727 -1.4322575567609027e-14 0.2413343903510848 0.10692235648516107 0.3821108328058534 0.16640260141260468 -0.11220379440005074 0.0846859067794302 0.1315204245990816 0.35712121924382456 -0.2742426484326484 0.037479552387491295 0.5242652619153477 -0.2517507201022914 -0.1213406924606426 -0.23106148558802125 6.114606320344565e-10 -4.2817981134711186e-09 1.0466707570709222e-08 8.024422157075898e-09 9.080414759578632e-10 -9.696360520605933e-10 -2.327129188925263e-09 2.27777224823077e-09 1.3189536682899243e-09 1.2956272131935497e-09 -0.1808451180064875 0.12111071566197099 0.2791770561493573 -0.028263486215993824 -0.09216428262291346 0.07659146255117776 -0.030649558223812136 2.781203416164303e-16 0.12558175369707086 -0.7137967442320449 0.18656483515545455 0.23653145579789792 0.07562230924186035 -0.20460285480917045 0.04288505239554863 -0.20508170363679393 -0.20768119448501737 -0.03672472068436914 1.0415099188689607e-16 0.0036554923201976594 0.1337116392693979 0.21348678591782638 0.06506073679235397 0.1495567992405254 -0.08382785959280692 -0.05840559595714709 -0.07434421329140337 -0.011351536416265793 0.0208929580363112 -6.222904434772436e-24 -4.999702053361806e-24 -1.3800379243871489e-24 -0.039188107156810696 -0.0565649842260305 -0.08007574185765828 0.05405470174289291 -0.013008137417361256 0.17901231550893626 -1.830568226632788e-16 -0.19173662767763408 0.023494861837744675 -0.06567685808893407 -0.35290669410044 -0.3642811822876445 0.14129933062735023 -0.22930048982951157 -0.37062689687584666 0.33812125644235047 -0.28551174680801533 0.2071128628793814 -0.06793668905919864 -0.14072724916051974 0.3556496233725286 -0.10761883889469001 0.004255614269519693 2.6714054285842256e-15 0.2036283010603321 -0.0471796912861395 2.990745464223975e-10 6.303706403129266e-10 3.082293182815799e-10 -1.722485417442411e-10 -1.2674467221361792e-10 2.2335108202255435e-11 -0.04537082213404115 0.05106742589702184 0.08526348358332665 -0.057066472596297 0.026052706892802754 -0.03820605584747156 -8.181248053580447e-17 0.08093344275249935 0.09918652618486952 -0.1729016664314202 -0.09108939501649614 0.25536660954956286 -0.49133815407872444 -0.03269012707743148 -0.25948450906690806 -0.3283243726058115 0.059002073584790204 -0.42355397987949683 -0.13739021036601243 -0.2738390860357496 -0.14889672166192316 -0.024163142280642463 -0.3426686387436159 -0.15001574493348244 1.3720038236663637e-15 -0.06390534906047182 0.040936864279422995 -0.009042276930726042 -1.7024699927835234e-21 -7.058035386290975e-23 2.8118375227286247e-24 -1.2338721199592543e-24
11 -0.01869505398687802 -0.03828956172873468 -0.05626693122105631 0.06359488912907053 -0.006811108961470506 0.17986698007846727 -0.04902188420719918 -9.772421933320237e-15 0.15683576004408464 0.051417869655223214 -0.034818942361138666 0.01955281233740234 -0.22565016323402798 -0.05433319755452885 -0.02847559929238816 -0.030482192205036947 0.004972410476833853 0.4072867118322503 0.18517391991582094 0.06629090693257543 -0.7817932207032118 -0.2365052308162334 4.308690627054394e-09 1.1771659876432345e-09 -5.725827521614285e-09 -1.0391203916625393e-08 -3.1762691706375743e-08 8.46899803202079e-09 -2.6382189643846035e-09 -1.0568312534000294e-08 -4.148360160218829e-09 7.785448837008489e-10 -0.08357268604064921 0.05753651249184334 0.10609078903413037 0.04894011451083675 -0.11364887172795857 0.1371773408622659 -0.1387433052054361 -2.9206677113605774e-16 -0.08212973739360244 -0.3206558595102387 -0.20927164647515947 -0.3728831520807725 0.1044536815027371 -0.32658728166760037 0.40300483796207026 -0.08953044086367448 -0.42375331917506365 0.13396039450009198 -9.411052403144954e-18 -0.0622381887273351 0.1406616500599604 0.13606110196348234 -0.15275215070506387 -0.07631314506792068 -0.05854413695851716 -0.062103972621607335 0.15752699037814377 0.029222144531215116 -0.20706739899668397 1.717101482195342e-22 1.216712963530592e-22 1.0227574481124458e-23 5.063747983691248e-17 0.0 6.705752078223309e-11 1.1430707764179507e-10 6.49799927803811e-09 1.7224875603015857e-09 2.897273629996341e-09 3.7182027784238043e-09 -4.608010415796766e-09 -1.043313770205624e-09 9.264140035506813e-10 -2.7119484114080997e-09 -1.2479782716618249e-09 2.5918682682785594e-09 -3.0053408405240552e-09 2.0516377452210487e-09 3.682427381747639e-09 0.0 -4.530931759908434e-09 -4.271873067737945e-09 -3.5775242040261577e-09 -3.7262559076081255e-09 4.543374135919753e-09 -3.1001037328537433e-09 3.3958605454363243e-09 -1.2804166350034255e-08 -0.12972304799267292 -0.37677516918777515 0.8509276909407589 0.3208558020406581 -0.11525384187314554 0.030042864769657333 0.0 -1.6526369837728965e-14 -6.588340490277634e-12 1.7418870716924995e-10 4.755852405084152e-09 4.503519325020707e-09 2.9720269698498713e-09 3.5231074710689688e-09 -1.5500784645894642e-09 -8.267253320255135e-09 6.697476390057661e-10 -4.695674189508395e-09 -2.175997450496712e-09 0.0 -5.596996952505821e-09 -2.412506936917543e-09 -3.548233603767377e-09 1.9446889460711133e-09 -5.510990123923007e-09 2.0860848215534364e-09 1.0731540008905636e-10 2.1845635796129775e-09 -1.7038271845247707e-08 -1.4077992716441959e-09 -1.0810177565673192e-08 -9.565891882687885e-08 -9.201719460807578e-08 -1.2541065528343787e-07 0.5698907731629603 -0.8194201982969066 0.03218831654515342 -0.05233505101494073
10 -0.07132163727298409 -0.20873085307022068 0.1981629992102936 0.35069788669434804 0.12365126128083917 0.07425768182607168 0.011062260190310728 0.6741186049426418 0.06595303827063857 -0.004757505154157286 0.09007751607069887 -0.08288654647316777 -0.18665957044980142 0.14709800129726647 -0.14713349498651945 -0.007296956279403954 0.007819309744478222 0.4440193064195549 0.004703914449158101 -0.01805328391522012 0.13445760766342024 0.0233684025196099 4.134221196188437e-09 6.10112361555208e-09 2.102857639777059e-09 9.395117144247313e-10 -3.9182628035631806e-11 5.651921775374052e-10 -5.070791440733185e-10 -3.356566904819736e-10 1.9774986658271603e-09 1.1927786399343455e-09 -0.2234861269712233 0.38025019987717146 -0.30454794830014376 0.225731330417848 -0.07083443224722402 0.0939907390007628 -0.10841525041176762 -0.6819006622117014 -0.03558904238109326 -0.09223118341508407 -0.025050422246303668 -0.0328050510891356 -0.1518696399041047 -0.0734584773106224 0.2193367113444489 -0.019908681942942576 -0.09024684405483399 0.02807518036694288 0.2298930961960747 -0.022959834164152013 0.09174786978510266 0.012505190779854892 -0.04207398254614862 -0.05836081340617034 0.05313102532569947 0.05670082857404431 -0.009849649160436683 -0.007520129088326846 0.0216963736381998 -1.9805791922148015e-23 -1.5251757973391335e-23 -1.2587796097117598e-24 -0.10957332983233496 -0.4009808141116121 0.517741181039877 -0.007224523655233068 0.06030032158858371 0.06723678601879571 -0.7115043373203108 -0.0003312820112963143 0.03677841067196239 0.001045930071915849 0.006198233910950807 -0.01975197139820207 0.059061226326142933 -0.019754963869956867 0.05201739311379822 0.02957451728155118 0.015158988899003639 -0.01884661981095464 0.001351108586958156 0.14235820204513736 0.07002603017849447 -0.046775344347578546 -0.044857576844724655 0.07149299254520797 -0.01945862479727071 0.004112226289532535 -3.9668139271031085e-23 -1.491199615428729e-23 1.4708751481244326e-24 6.275906226274613e-24 -1.6082937613409593e-25 -4.5921303404592615e-24 -0.20942490073350561 0.45633227538027543 -0.5185809829723539 -0.051113416325148646 -0.039806978499155786 0.02897768648801686 0.6363272098695636 0.052438957482098376 0.0034390122091683237 0.03420740785356601 0.03650824023728327 0.08656370573979656 0.000468617121340388 -0.030664771281571725 0.030559297850839662 0.15509086399866231 -0.02413209192408379 -0.06324436087609023 0.008935755645406438 0.012161129115118866 0.10578233627082968 0.047409121105313694 -0.06874445848499287 0.03577516519539886 -0.07710979085010476 -0.008737109546501717 -0.006686196666947993 0.004581343289045607 2.0022801070977362e-22 5.814524083905925e-23 -9.502686297359896e-25 -1.752613369921019e-24
8 -0.0847296147681408 -0.047164722893739956 -0.13282840389843967 0.09102528187919585 -0.26557624944250857 0.3007696386979034 -0.1577639137665555 -1.0931864780395626e-14 0.19363204516060192 -0.32827691169971496 -0.010309655909308824 -0.16116548344077605 0.2305622282677444 -0.11045246963247275 -0.3571993872038347 0.1716889618788411 0.18360819738269638 0.2294175838448862 -0.11917406544209697 -0.09342447141127744 -0.48830032907290777 0.19314691402903197 -1.3285451648003773e-10 3.5911015673851066e-09 -7.143379310432382e-10 5.707033408078195e-09 7.683365557098445e-09 3.752468303812306e-09 7.42605809727954e-09 3.762883737090616e-09 -2.5609069489315637e-09 -2.0324724314845567e-09 -0.3220002217543167 -0.23795151440491089 0.20703893592741338 0.46754486586895955 -0.24304805363483167 -0.24600932468963713 -0.05427467352681876 2.3731929829269793e-16 0.39933192438986187 -0.08845965166159461 -0.044377906837528236 -0.37302094451880985 -0.07728149723307909 0.08465062207188799 0.17615576288153195 0.057699779186943495 -0.025430120678624296 -0.1252950882499875 1.0963502709780332e-15 -0.19131622494822645 -0.019388778643874803 -0.1830652419028488 0.01583448856208618 0.006649014004311028 -0.03213336347667614 -0.04163122624929301 -0.09503546989608586 -0.023336846311652622 -0.0177841373917509 2.7741246236459315e-23 1.7853685237478276e-23 -1.718080473614811e-24 -0.06439436283339042 0.03285229206222822 0.018830888602531085 0.1836509050565854 -0.07204650966186865 0.4354670020409137 -3.4046538126822804e-16 0.2812981091079634 -0.516935619887224 -0.3673247332005318 -0.015604069085251672 0.2503410946354721 -0.2031048062459687 -0.2357754236238573 -0.010634858944694714 -0.10119190628934792 0.168249754693425 -0.05817405201075665 0.019416115471386015 0.1882470074761143 0.015629392761006444 0.16238254177207997 0.03656449440850224 9.901986047444247e-18 0.06535378005789859 -0.1214737485685547 6.24808419672891e-09 7.591434060392534e-09 3.8119215731262795e-09 -3.1702521128550705e-09 -1.8039792724939234e-09 5.3461271962231934e-11 -0.27332276664418553 -0.22412861295189537 -0.04142624656650652 -0.5912724482865178 0.2240002822378303 0.37863514374226637 -6.314654560489626e-17 -0.0064218253490979935 -0.4247977794795934 0.1293454869682518 0.11679705136776553 -0.11021319227515693 -0.05198972440936709 0.19202562763701744 -0.0022825762769473506 0.10331412282159913 0.0897700663469735 0.1472561826491691 -0.016690027202214287 -0.057798484101055085 -0.04399242704978951 -0.041682241186569775 -0.07723737468344591 0.0769567422184394 2.908776180247357e-16 -0.008091216761200525 0.08908756470229907 -0.002669100197320986 1.686066825236055e-21 -7.481380259523991e-23 -7.234600115688109e-24 1.0135184110502728e-23
7 -0.11837682251382887 -0.20573653246053714 -0.19859461078104634 -0.07461614470979201 -0.1739435824272976 0.54818154717044 -0.2790519686570099 -7.365484818867596e-15 0.1560388677977648 0.04815281791434752 0.3751427241289833 0.2595979823960123 -0.22542159834951803 -0.004090125853341794 0.06750663167286866 0.23729675252916294 0.04638741653485121 -0.13238911885725357 -0.00114967801163043 -0.1664758182208375 0.04642876431518994 0.3065685884598366 9.965642466199455e-09 -4.74135593200686e-09 -3.840511745722245e-09 -4.498883519332077e-09 -5.855812594060851e-10 -5.064159458632004e-09 3.1414186724222246e-10 -1.9597460999129702e-09 -1.8958052211894192e-09 -8.24597600344736e-10 -0.390187933268535 0.20023854229957713 0.6096520548705431 -0.056818459900280366 -0.265514716937318 0.1332987730718602 -0.21958892315647477 3.7962032557902665e-16 0.1061010756902937 -0.24084434154358403 0.14249354161244662 0.2517764520040756 0.04627733796157547 0.024679273933910312 -0.006017677605517016 -0.13733666901604344 0.1299495200809516 -0.22233078906136672 -3.1122843001994074e-16 0.1010187596740468 -0.09480315383777833 -0.0232357532006903 -0.07482896749234702 -0.11181027261340659 0.10747128595285622 -0.05569040769878671 -0.01970060881282517 0.048395491750827926 -0.011301466828637093 -1.8135352290611214e-23 -1.2281100806106598e-23 4.290563506398366e-24 -0.1165636082411312 -0.16457037645966863 -0.21792214422323894 0.14694110227928678 -0.08828740940602346 0.5421196018941083 -6.535226427870202e-16 -0.600903531360102 -0.11539250011503902 0.0068791686416534445 -0.2404262346472528 -0.18303594849317945 0.08194988543577882 -0.0029491606757707295 -0.044137897282635605 0.18442283647646715 -0.09945205383030871 -0.02211113225292841 -0.028241155974963704 0.0586920158298996 -0.23536985111523162 -0.09626148561302043 -0.019079650058288183 1.527198385430018e-16 0.009731903471253595 -0.019348634581935396 2.729108039534715e-09 5.752243388624533e-09 2.8126469490801516e-09 -1.5717983549435614e-09 -1.1565675114916219e-09 2.0381180574477767e-10 -0.27089480489891143 0.22496398455780614 0.5140209610586688 -0.2847103242703704 0.1861535680472229 -0.18636437701243264 5.391262376527672e-16 0.46693773600199423 0.0596305106690336 -0.1457101593125464 -0.22790194001327188 0.29978305796826543 -0.06855420902253677 -0.13606680548507447 -0.04580687061400313 0.07707696090551559 -0.028163885482789797 0.0729112805942232 0.16712868805150183 -0.03386494778238947 -0.022491259460037934 0.012827350195516021 -0.01997258717559039 -0.005293587102334344 -2.0955603613629235e-16 0.09308157252858076 0.02269144061577585 -0.00032888209287976016 2.3173627617582017e-21 -1.9848148594579428e-23 -2.174825208949151e-24 2.8359000151228942e-24
6 -0.06548617705383177 -0.2049831614718956 0.25455399918537075 0.5048980943023239 0.21792764174679152 0.18525872212826544 0.0390849391581381 0.5615964611024513 0.33748376678567493 0.09026497435313927 -0.21580478109387377 0.13718427978291764 0.1456348072198609 -0.10180863440806306 0.0860708587591805 0.0027755604050998936 -0.00216189455946319 -0.0936237291821276 -0.0007942807754704129 0.0023234976303408168 -0.006393142098248617 -0.0007161153384019869 -3.4441476265023118e-09 -5.082739752501407e-09 -1.751854050670466e-09 -7.826908352872655e-10 3.2642364533729144e-11 -4.708517528229523e-10 4.2243879744970774e-10 2.7962973894791593e-10 -1.647419674254328e-09 -9.936830969421788e-10 -0.25869810758221506 0.46061924953952793 -0.3980573966710193 0.28242895733409157 -0.08530867666194748 0.11688948546017439 -0.14653803361734918 -0.47746248180072826 -0.04733345794037997 -0.1506913348987481 -0.06749684378328778 -0.15526262894445247 0.23047934059661815 0.08589517208268559 -0.1682129875409192 -0.004756835618035501 0.03488583086405726 0.022510975430345727 -0.25462765566259116 0.013819893458287194 -0.05455455252742757 0.0044613131669118495 0.0038664154898972476 0.007573029309195385 -0.005630866082096569 -0.005099958984060307 -3.3899608649087716e-05 0.00024613057370594376 -0.0010420289479499795 -9.587967196220915e-25 -1.84700143661918e-25 -1.3799288121372577e-25 -0.139503924819291 -0.5168565176962843 0.6760574488913967 -0.0034931324346654975 0.08288811247206172 0.1271961655997625 -0.3938932398777875 -0.03616266852961249 0.07231704535999245 -0.0018753735438655848 0.09819266717988376 -0.12832748192987145 -0.17472901210724923 0.005826368815492287 -0.040261609114306214 0.008715966778711646 0.0405336267645162 4.067508144653987e-05 -0.0023858275751600442 -0.0539061730167261 -0.02174091468026361 0.013764516832417056 0.01278783705633334 -0.08828234658759533 0.0066322923597944465 -0.0010371929869567554 4.6994284200798334e-23 5.285438520793426e-25 -1.6748962072580516e-24 3.9942531876510123e-25 -4.951078344068542e-25 5.462557698346081e-25 -0.2948347479739325 0.6022033673755408 -0.5747045196800763 -0.10767376099986337 -0.029896152449813407 0.0012707146659890556 0.33994693108720975 0.14213655993001412 0.13921580054167074 -0.08659117113977949 -0.017545475362204025 -0.11967693799274068 -0.09312088075583327 0.06173275004136949 -0.05671933150082201 -0.006900628563712472 -0.024929422377680914 0.01403305663203933 -0.005761630382249132 -0.006665883421798063 -0.04571810710056556 -0.011132967192342294 0.04196417301989605 -0.002509730417138447 0.09848208836788651 -0.0003973219151786841 0.00683646003253034 -0.0017016377075809795 -8.08522916012567e-23 -5.1924082954069865e-23 1.3669639975107348e-24 2.6086905823804153e-24
5 -0.0654861770538317 -0.2049831614718954 0.25455399918537047 0.5048980943023234 0.21792764174679113 0.18525872212826522 0.03908493915812488 -0.5615964611024953 0.3374837667856048 0.09026497435313889 -0.21580478109387388 0.1371842797829174 0.1456348072198609 -0.10180863440806279 0.08607085875918086 0.0027755604050998693 -0.0021618945594633373 -0.09362372918212726 -0.0007942807754706271 0.002323497630340638 -0.006393142098248428 -0.0007161153384020052 3.4441476265023085e-09 5.082739752501401e-09 1.7518540506704656e-09 7.82690835287264e-10 -3.2642364533729945e-11 4.708517528229516e-10 -4.224387974497091e-10 -2.7962973894791604e-10 1.6474196742543269e-09 9.936830969421788e-10 -0.2586981075822151 0.460619249539528 -0.3980573966710194 0.28242895733409157 -0.0853086766619475 0.11688948546017461 -0.14653803361734827 0.4774624818007282 -0.04733345794037978 -0.15069133489874803 -0.06749684378328764 -0.15526262894445259 0.2304793405966183 0.0858951720826853 -0.16821298754091946 -0.004756835618035718 0.03488583086405722 0.022510975430345963 0.25462765566259105 0.01381989345828896 -0.05455455252742707 0.004461313166911886 0.003866415489897283 0.007573029309195252 -0.0056308660820964555 -0.005099958984060228 -3.389960864895143e-05 0.00024613057370589963 -0.001042028947949969 1.2229600916651377e-24 1.827250866595382e-24 2.6589355892571565e-25 -0.13950392481929105 -0.5168565176962843 0.6760574488913967 -0.0034931324346653787 0.08288811247206178 0.1271961655997634 0.3938932398777875 -0.03616266852961273 0.07231704535999241 -0.001875373543865579 0.09819266717988354 -0.12832748192987126 -0.17472901210724903 0.005826368815492371 -0.04026160911430622 0.008715966778711436 0.04053362676451605 4.067508144657116e-05 -0.0023858275751599115 -0.05390617301672645 -0.02174091468026391 0.01376451683241716 0.01278783705633512 0.08828234658759514 0.006632292359792607 -0.0010371929869571227 -3.6477648870313427e-23 5.465737663069269e-24 -3.0724842872581885e-24 -6.89868597772248e-24 2.110848710552134e-24 3.0693444884762456e-24 -0.2948347479739324 0.6022033673755407 -0.5747045196800764 -0.10767376099986342 -0.029896152449813466 0.0012707146659890235 -0.33994693108720947 0.1421365599300147 0.13921580054167063 -0.08659117113977959 -0.017545475362204067 -0.11967693799274043 -0.09312088075583318 0.061732750041369494 -0.05671933150082215 -0.006900628563712284 -0.024929422377681046 0.014033056632039104 -0.005761630382249441 -0.006665883421797327 -0.04571810710056521 -0.011132967192342745 0.041964173019894815 -0.002509730417138671 -0.09848208836788683 -0.00039732191517897623 0.006836460032530425 -0.0017016377075811744 9.234237716578006e-23 2.8735577510905656e-23 -3.6290523981607794e-24 -7.528051456029206e-25
4 -0.07132163727298407 -0.20873085307022063 0.1981629992102935 0.3506978866943478 0.1236512612808391 0.07425768182607159 0.011062260190295586 -0.6741186049426505 0.06595303827055506 -0.004757505154157856 0.09007751607069858 -0.08288654647316807 -0.18665957044980128 0.1470980012972666 -0.14713349498651912 -0.007296956279403808 0.007819309744478137 0.44401930641955445 0.004703914449158476 -0.01805328391522006 0.1344576076634205 0.023368402519609675 -4.1342211961884404e-09 -6.101123615552081e-09 -2.102857639777064e-09 -9.395117144247262e-10 3.918262803563488e-11 -5.651921775374049e-10 5.070791440733186e-10 3.356566904819743e-10 -1.977498665827159e-09 -1.1927786399343455e-09 -0.2234861269712234 0.38025019987717157 -0.30454794830014376 0.22573133041784807 -0.0708344322472239 0.09399073900076349 -0.10841525041176613 0.6819006622117014 -0.03558904238109347 -0.09223118341508403 -0.025050422246303737 -0.03280505108913565 -0.15186963990410504 -0.07345847731062224 0.2193367113444488 -0.019908681942942503 -0.09024684405483403 0.028075180366942933 -0.22989309619607487 -0.022959834164153693 0.09174786978510213 0.01250519077985498 -0.04207398254614868 -0.05836081340617027 0.05313102532569931 0.05670082857404417 -0.009849649160436754 -0.007520129088326833 0.0216963736381998 -2.0367955652203718e-23 -1.672500049667387e-23 -1.7372171269253666e-24 -0.10957332983233495 -0.40098081411161207 0.5177411810398771 -0.0072245236552330215 0.060300321588584 0.06723678601879782 0.7115043373203106 -0.00033128201129677804 0.03677841067196252 0.0010459300719161259 0.006198233910950691 -0.019751971398202114 0.05906122632614305 -0.019754963869957086 0.05201739311379828 0.02957451728155129 0.015158988899003613 -0.018846619810954635 0.0013511085869581138 0.14235820204513774 0.07002603017849475 -0.04677534434757861 -0.04485757684472609 -0.07149299254520719 -0.019458624797269244 0.004112226289532822 2.635630662537861e-23 -1.9390179266471276e-23 -1.0136372303581353e-24 1.2809040355206787e-23 -2.400200463055094e-24 -7.322095718813209e-24 -0.20942490073350567 0.45633227538027565 -0.518580982972354 -0.051113416325148625 -0.03980697849915607 0.02897768648801685 -0.6363272098695634 0.052438957482099445 0.003439012209168402 0.03420740785356575 0.036508240237283274 0.0865637057397964 0.00046861712134069184 -0.03066477128157175 0.030559297850839662 0.15509086399866243 -0.0241320919240837 -0.06324436087609032 0.008935755645406787 0.012161129115118317 0.10578233627082939 0.04740912110531408 -0.06874445848499197 0.03577516519539907 0.0771097908501053 -0.00873710954650151 -0.006686196666948073 0.004581343289045757 7.135716270679542e-23 -7.117112921551966e-24 2.3750932580832245e-24 1.4230649451428277e-24
3 -0.19674218331434193 -0.3258209251161784 -0.20177101428799418 -0.153072534156937 -0.07526180811889376 0.32164707102076007 -0.15019625623392083 2.2979736596926264e-14 -0.3257547294750017 -0.02960957704513555 -0.6959812560976611 0.03933736743340744 -0.13861998244476978 0.06717621961639116 -0.12539990373855636 0.0710045760497019 -0.03947488158029876 0.006402987460693062 0.11555623083388245 -0.07231282413945181 0.040561131275949985 -0.007642443729399813 5.963366964737357e-26 1.6630181230149325e-24 6.546222899990737e-25 2.415621366478261e-24 1.2831947932996446e-24 1.678745349733484e-24 7.89264837967183e-25 3.759177989344823e-25 4.317986643905556e-25 4.143914499993824e-25 -0.42558183988932874 0.2098086841263532 0.47586667407390926 -0.13238944789931353 0.010131639111681601 -0.050602525562697155 0.057704632169471894 -8.737728010692805e-17 -0.09275924237774966 0.37003327349115284 -0.40779765175671406 -0.16954674610499323 0.09001355285020012 0.09967218980975587 0.16402132077757248 -0.34878484291532147 0.05918703439419458 0.009535601595642703 1.6826291004980255e-16 -0.035950432957077026 -0.04394405035718583 0.09813752485240577 -0.004528696807445042 0.030358101372866597 -0.0037405720636583964 0.00786291235635034 -0.01259259363771629 -0.002862756128119913 0.009657478126132487 -8.758395414408675e-24 -7.479613666809117e-24 -4.317034003867489e-25 -0.35955718234192574 -0.395828694239598 -0.5145646068159875 0.13280426279813246 -0.17050068711224275 0.16075936126913926 -1.5202753743055357e-16 -0.02833753883777198 -0.0786949711030433 0.324936796194582 0.4209196728520298 0.0925299110844874 -0.0691490299498527 -0.15113663996131368 0.1539906551725095 0.1596030909029121 0.000674083818543472 -0.013709500725996172 -0.028194000410641552 -0.012040060344281104 0.018325128183322704 -0.006091782159856984 -0.005524013687381984 2.1668134624773546e-16 0.007249310270814631 0.0010606097014011903 7.534219880970501e-25 -1.9524554458081855e-25 -2.521015927333822e-24 5.469926680532011e-25 -5.353256730109969e-25 -1.4758379536515781e-25 -0.4677086168399937 0.34695603742508185 0.5912771636975558 -0.14417875667262595 0.10244570223897598 -0.03923261901499516 1.0813398524597546e-16 -0.038533783616910504 0.08459039787278577 -0.20778075622967992 0.1795867565639867 -0.08281624709487925 0.3356668339855488 0.08372207038758996 -0.030517307094788663 0.15020581417813514 -0.18180905902302477 -0.03648298774520677 -0.06022383336478306 -0.026800205415726083 -0.0428083806511413 0.025300407299780395 -0.01812697903686668 -0.050587532801934364 1.288065635218598e-16 -0.004760613342936289 0.014427559302131762 -0.00446076808589755 -2.8100120702733e-22 -2.301967275272059e-23 -1.1234409444224694e-24 4.41255940827001e-25
2 -0.3884760624877547 -0.14631161385944996 -0.6866738222318092 0.04656933664133305 0.3659052620909365 0.2002220645503905 0.06796341812587649 5.276599776902052e-15 -0.09459542261123824 0.18709139610458178 0.11751891647761148 -0.021087835261301174 0.2558836726579671 0.1373049223820292 -0.014905199451929089 -0.05113314638879394 -0.10438150371326252 0.04141848964886725 -0.04098734800632054 0.1249640805624569 -0.005056729427136747 0.009475050977002396 -2.8412480449772124e-25 -2.146358640661362e-25 -4.160220871706526e-25 -1.7875607779739023e-24 5.1388541271351597e-26 -1.3520913781408461e-24 8.988843423712879e-25 -3.7621586789677477e-25 -1.0736409195282875e-24 -6.802672526182303e-25 -0.6278488944270421 -0.021670660430473908 0.44050633020070296 -0.07302971811798607 0.27930157564421865 0.21897587155390294 0.10793533419220014 -2.602266131519234e-16 -0.23181525050044405 -0.10328157805041079 0.13016230980920288 -0.09360955362088766 -0.16610986614781026 0.2407338124202742 -0.16053847239199165 -0.04999571474333662 -0.17579420444132315 0.15400167000081114 -2.0029085701802952e-16 0.047105992614862056 0.022381255493936082 -0.07721488893572948 0.00563208535073008 -0.02923782726687066 -0.0015590339087778065 -0.011317808330179585 -0.00873093339768586 -0.004871921809173775 0.0003658860839231962 4.4991004055088514e-24 2.9417699851347924e-24 -5.28738719613085e-25 -0.6690833182307764 -0.023217816529195693 -0.32171098909714685 0.3215482476617947 0.29423860621526643 0.2752886548018734 -4.2266189187216883e-16 -0.03746597452610699 0.3724850520590716 -0.03108727132966973 0.01265663597397148 0.07158471247629485 0.04953146901359182 -0.022208354841889415 -0.10206897635207983 -0.10103119861275747 0.07764567719779418 0.0271299656755144 -0.07514230138023054 0.00030386409378824983 0.009764553421414086 5.248749228896779e-05 -0.0054645477044307405 -2.5722516476495614e-18 -0.005196570883912349 -0.0013041335766847842 7.293037755810307e-26 -1.68813890325716e-24 -1.7036918524559895e-24 -5.238982057630768e-25 -7.005357987362108e-25 -2.2975530329094494e-24 -0.7375853893889013 0.0011319750121786658 0.39585343902459086 -0.30794214301984496 -0.2358297592225402 -0.09738239566717438 -7.622678537682269e-17 0.018818275906619844 0.2652000959912293 0.19061091583739928 0.023957293974015352 -0.020329150634197414 -0.09298916942641658 -0.05241385998809615 0.03903511254526152 -0.0521077733372946 -0.045560957145381165 0.044371854367739764 -0.0776731105597467 0.06145937122221024 0.005317454964575909 -0.005373289919785632 -0.032047487342524515 0.027154313284118024 1.830990268281499e-16 0.0010500190708006307 0.003354025127835885 0.0034851417033463002 4.1253625107706048e-22 4.387850228057204e-24 -4.621867867615423e-25 1.158964703941147e-24
1 -0.3678830873520917 -0.43002731375705044 -0.08897920226490383 -0.4815271008664042 -0.17230958965346713 -0.17631173551177684 0.08214843072620442 -3.8380298804255734e-14 0.5785694711418968 0.04348780892548905 -0.09167037782902458 0.030686378431493862 -0.02074175091825708 0.05194660265933084 -0.07982780176151684 -0.11531010829525262 -0.02265177983352803 0.029746818338508427 0.0052381480287956705 0.03785103533624487 0.026684898453066944 0.009022543532558321 1.9759708559863537e-24 -3.965562354205319e-25 -1.0045181699390429e-24 3.943108173514194e-25 -8.505383677904013e-25 1.3878137751001753e-24 -1.2194510827961552e-24 -4.603538058004913e-25 7.006870550730662e-25 5.2496726281782485e-25 -0.46468969903884344 0.19449874637848114 0.32087222564274726 -0.2834882521559124 0.2417042507038348 -0.3185756661370865 0.29268760412917527 -3.547880886501399e-16 0.13019887019583026 -0.3153346270118273 -0.1996586061385615 -0.07615344469430407 0.09069745258689979 -0.22024079846706568 0.11278072383513663 0.20162887300459736 0.08270741250939959 0.1398807076647647 -1.2426872054700819e-16 0.06606569544806061 -0.11713193121003303 -0.009460046481883172 -0.0038251221823585937 -0.006315234229571937 0.01877428235694955 0.010363898491365424 0.0007599464418384454 -0.00018607402183808851 0.008899827061819176 -7.681780971878472e-24 -5.584166253142706e-24 -4.0528615109386383e-25 -0.6162471398755633 -0.4225335469841294 -0.4794342012207712 -0.08102879603916005 -0.1062064289680643 -0.13938665183195037 3.987327982767885e-16 0.12764478856785064 -0.08840092565729586 -0.16711915441097785 -0.08257019877742781 -0.2920166406300981 -0.04420782600410091 0.05929141307739148 0.0879273366142746 0.019782126398160176 0.11796127628216092 -0.01775829043935047 -0.049340644052882056 -0.0023403330792205273 0.008704756690769075 -0.004660847501264599 -0.008956813700124137 9.198909755181526e-17 -0.0013498325202237562 0.001796099156986161 3.1628057172240136e-25 -8.88335282934006e-25 -4.292080481056301e-24 2.7583434047007155e-25 -1.934048961910898e-25 -3.0758647055730252e-25 -0.6068903081441807 0.3814729665972798 0.48323898120902226 0.17028538463750523 -0.018114067922921594 0.2028725058787545 -1.6085007678767662e-16 -0.18417818749606948 0.019525777740604777 -0.2735899731747091 0.015584374248704302 0.042488045859224166 -0.16701712341412495 -0.014082875322319041 0.0960055743351902 0.07199904558486771 0.13780941002827293 -0.06486945871945941 -0.01571168443088354 0.04741708271442942 -0.010256538537852538 0.016229540869916795 0.04060119992655223 0.024375289999143294 -1.0525873362094534e-16 -0.005142839864840523 0.011426372723555359 -0.0008810036502947693 1.5620696997301826e-22 -9.949939053135667e-24 -2.544212897568137e-24 2.5553517981661607e-24
30 -0.06890829445989215 -0.04696239737947336 -0.21787779551210257 0.10983057658838441 -0.11289298708130331 0.3145810672281289 -0.16533878469971858 3.944864391904898e-15 -0.03127192420305355 -0.42606911460342106 0.10603788618222522 -0.184683522474444 -0.003310961148013661 -0.2687399482842172 0.06598837475548816 -0.5589769631169536 -0.003689403886796768 -0.18244259455963452 -0.07896019668548133 -0.12326323439932277 0.30711772839690576 0.16886166056943105 3.121131272981721e-09 -1.7505854500918964e-10 7.42839143468783e-09 8.84979696160401e-09 -9.747788371792927e-09 8.055654552765344e-09 3.850642447973695e-09 2.557552778975844e-10 -3.788368056981353e-09 -2.877899637218776e-10 -0.2739996961970891 -0.2425661142788429 0.28820682747022736 0.5994279094434073 -0.00660631587708558 -0.14949837530134702 -0.22252463339067768 2.6211506413140607e-16 -0.10527528334335869 0.32952569447120406 0.1108349166014132 0.08165073107730939 -0.03265088670519502 -0.10451199645683383 -0.21260146502814903 0.18859953804847396 0.05423980136030213 0.19862665385251593 3.2598619442632604e-16 -0.07052289720507841 -0.0016099320868060343 0.20889083676943634 0.03547036855038768 0.031928114065097046 0.12289520211780629 0.023563996021538632 -0.0993475673669289 7.539015412548098e-05 -0.04008730024223969 2.079931893199597e-23 1.2469742937949549e-23 1.649283678528855e-24 -0.049591236335564955 0.02927540369502593 0.0018336757261858134 0.19622138380100773 -0.025369554627748387 0.4541901103002178 -5.635253815757486e-16 0.27304447497515866 -0.34608590158562225 -0.24897929234095822 -0.02384009411484981 0.3964751595291027 -0.05162583781108504 0.32480023608067804 -0.05543968740472989 0.17064848619729617 0.16015384969562454 0.08019549583375524 0.18218760852367485 -0.27691411979400643 0.09590444366705474 -0.11741465819661684 -0.117511858127188 -7.318418974088002e-16 -0.11657750637307787 -0.06687630279601098 1.8218868813304313e-09 1.2809902590634437e-08 6.102827305356394e-09 -1.7379830220272483e-09 -2.1291684179977886e-09 8.004499689374349e-10 -0.17608333878081153 -0.20474918605335324 -0.09150532755455547 -0.5945082368306766 0.10124620061118285 0.42763396351093697 -3.2053566280081793e-16 -0.18766052500937375 -0.11108931633227627 0.22419391173946612 -0.15638449212298694 -0.07362849689062445 0.15499266701975184 0.09473688806047328 -0.26877523507068546 -0.07794116160157621 0.06144733332401447 -0.2311086979246346 -0.06273632945243124 0.057744336285550396 -0.11625489984255899 0.19285065155290876 0.03886545629801762 0.06814339413547406 -7.222272273831836e-16 0.10497583710743603 -0.02094370063220546 0.01873160431214639 3.527368214204445e-21 6.20064330079129e-23 -6.2587059679925074e-24 3.952028662873189e-24
9 -0.06463023288435099 -0.050570739215310356 -0.012769829742408308 -0.015827333195886414 -0.3128851882783189 0.24682729799329245 -0.18697372138387486 -3.1429715706732833e-15 0.08153176709416539 -0.16027239419187922 -0.008660937777979496 -0.007241999534228487 0.2645596022085398 0.033493453913164106 -0.34003208923831174 0.370191649862096 0.41952082421912484 -0.018644013728381165 -0.45241391933300035 0.15778319500717272 0.07972967277115318 -0.17480416780616057 -2.1941405129157538e-09 1.677365999729045e-09 -2.5708390661697335e-09 1.615885718948576e-08 -9.331623337177235e-09 -1.7271532809789905e-08 -8.27793350311251e-09 -2.451462330297824e-09 -4.509106647838088e-09 2.9944388682692427e-10 -0.12122560792120496 -0.04284830112183938 0.013680379730759818 -0.08003087366696893 -0.3687849871644584 -0.14764848672362282 0.030364831723901878 6.33575078853992e-16 0.540649493351395 0.12027943658279105 0.012701842015577978 -0.31303620885581435 -0.10217698352513017 0.407854848725906 0.08288442552901797 0.22290403110499693 -0.04672163010070149 0.026813940921381278 -7.660812475094242e-16 0.27723766667980826 0.13713039001644683 0.1358292019845149 -0.010960384182932659 0.0004756927976879491 -0.13125594878786775 0.12141809844265015 -0.05275989431377673 0.1672626939410335 0.004456108109241163 -8.376078296071547e-23 -5.890636200931772e-23 1.0303420880316648e-23 -0.025472324305870445 -0.007658319740210334 -0.01864642339274537 0.0022292647501126026 -0.05854124678586116 0.060450123974379495 1.0741683594739556e-15 -0.08221236149547201 -0.21331618415958079 -0.07281331192896555 -0.0012478064265875905 0.01757010012162809 -0.06473089235040576 -0.37139390304339076 0.13887469319192877 -0.2754916878593996 0.13686220211997563 -0.1427701846898583 0.0883817266834406 0.11233836340227121 -0.45725307150405675 -0.06326262185343294 -0.3027777628328233 1.5297124703949838e-15 0.14896818727121738 -0.5569418511423625 -8.686946616591505e-08 -6.01503403049264e-08 -3.16150572257461e-08 4.0591768765598256e-08 1.8213285593603264e-08 2.619174889657213e-09 -0.015550512799249622 -0.004504286372077155 0.006914647879092255 0.005504285509469054 0.036066989314976 0.014607095641604097 -9.360866797885194e-16 0.026634421267929392 -0.16935529287875836 -0.04567269721299752 0.057635207952786274 -0.04040939358961999 -0.07031961558695289 0.14740672041430808 0.1534755778572436 0.02851232684498174 -0.11618667920818941 -0.016730395371534264 -0.11255812103366357 -0.03321055050285846 -0.28250122026935814 0.021536982261467028 -0.24269608409284277 0.502753058745044 3.272172360558238e-15 0.13729134656818825 -0.27639199000793013 -0.6292433374917513 -6.860904949978615e-20 -4.588091305807878e-22 1.6086933391164399e-22 -4.0026732713504955e-23
32 -0.6453964541864872 0.41715771389630396 0.3986629156432645 -0.07425875936736938 -0.18739769133377168 0.16839852862008256 -0.2891275789490378 4.2008389966919016e-15 -0.015118717511408235 0.13520312217387367 0.00873450098830186 -0.11609593290872806 0.08002748887321273 0.02012837571115034 0.00010473518640457563 -0.015650033898648694 -0.2167428777318643 0.012763087317586623 -0.020139094245556443 0.1055968880918742 0.00011333235567359112 0.010558727889649882 -1.5804669366155636e-24 -1.3197822296258786e-24 3.253692553095846e-25 -7.556146533418976e-25 8.353282071134172e-25 1.3513318187747328e-25 -6.595946396729392e-26 2.4769702966549573e-25 -3.62056214920346e-25 -1.448572258318734e-25 -0.4168306323138316 -0.360277101643231 -0.31978518252420923 -0.43655135742809215 -0.17435036098711004 -0.18986154420376572 -0.4310386480736754 3.5494979168354737e-16 0.2187672284691901 0.020936634160665223 -0.012353961582830714 -0.06240229891773291 -0.0794522136005138 -0.15332838587796235 -0.11435874988432296 -0.14650432629213053 0.07333390116005366 0.13409295154603426 -3.31306495821362e-16 0.04281177952699728 0.07359808835034083 -0.055405365282021286 0.022240653597869822 0.0009914764935824315 0.010808671246255501 -0.018098395064953775 0.005867420073976884 0.003238182252596528 0.0015586972363002768 -7.766545071845866e-25 -1.4518835197864066e-24 4.923891741404537e-25 -0.726864407412405 0.49985342429715285 0.22090544253573496 -0.30449963179111345 -0.02013192905308569 0.011950602974966184 1.877208362175994e-18 -0.17046882971621571 -0.1489489906826128 -0.06547616137293871 0.05574072176210585 0.0474561177912859 -0.030912254270761705 0.003303265313205126 0.054480013902678356 -0.04566971132485575 -0.02839077490611183 0.042550012203216074 -0.099487591467124 -0.011688697636251806 0.008395931383095136 -0.0020292566397719135 -0.009913385928475316 7.735163401218915e-17 -0.0033390555985735103 0.0006475940731385143 -6.616305970461024e-26 -2.9951044876752975e-24 -1.9350631676553172e-24 4.639051091562189e-25 -1.1429258711497023e-25 -2.7397096628195846e-24 -0.6724304439792063 -0.525487857717834 -0.15369004595196417 0.3485388685566081 0.012626999473351505 0.11335229452142136 3.052440470474957e-16 0.2523109665480525 -0.131020283289016 -0.03983828596072103 -0.10255607762293427 -0.0761754011162084 -0.009474334520199069 0.004223932205539646 0.02951909134299564 0.0386943236277897 0.006523541337826474 0.026495924578540393 -0.07610612978213599 0.05465300165219939 -0.006676265775296258 0.01668267478209076 -0.026925901990270375 -0.04025565181135246 1.7404605111382706e-16 0.012133477814996997 -0.006436925136771653 -8.247592211070072e-05 -2.3504369331541815e-23 4.8214388976662854e-24 4.1303796454670282e-25 -1.0549871020389007e-24
28 -0.1250440980851459 -0.029241793429386816 0.04827179799678629 0.04798782204529539 -0.33139065059814377 0.06842833866488472 -0.16915999126610975 9.135693520637494e-15 -0.11678958518704532 0.0006155261246186488 0.10734871828039001 0.2762088035258188 0.329550024268562 -0.2284021756189258 -0.439636719383927 0.056364781734092845 0.46666626113959464 0.02829683648374266 0.22714028640181838 0.31645940466308126 0.06921453567451159 0.04435223569874617 -6.270994279061311e-10 -2.3694022571534546e-09 8.523559809361116e-09 -6.7816539060948906e-09 -2.750933843821926e-10 1.3701623004418324e-09 -2.529650129996935e-09 1.3020501531710972e-10 3.32810957355564e-09 1.6413237865153968e-09 -0.20154112025229814 -0.12711191125668717 -0.08421228044597354 -0.14160267975290436 -0.41477654352701243 -0.0038961246378334986 0.15901104260814658 1.6173153867592213e-16 0.51604048971332 0.26726699659366254 0.27187088423530836 -0.23130175734892874 0.12786520021529585 0.10862183332321053 0.07989724976935203 0.07206623344800657 -0.3855506080336331 0.003245387955191422 -1.5933998649219533e-16 0.028480121777021347 -0.15199941470827505 0.0735414315497042 -0.00037786386841234733 0.09463481922232503 0.1271750591340467 -0.06723391054871074 0.07273451501286977 -0.008445357972983295 0.029629277758044636 -1.3230947951981488e-23 -1.1023144388310788e-23 -7.97208348572359e-27 -0.06779441181890129 0.029176616015590084 0.032241806182082965 0.07730697848839124 -0.2205828804053395 -0.10157493803704533 8.640427245011091e-16 -0.197863169583862 -0.272977078563766 -0.0939618055024333 -0.1019223217465583 0.27235237180017874 -0.15352855298215118 -0.26519993472789954 -0.2553322246994058 -0.21634541601876664 0.1113132604901265 -0.6831991705453787 -0.06332927228190251 -0.10753483052892146 0.03830706467367769 -0.1102935872571453 -0.05019091822683112 1.3557479831357035e-15 0.05339421148907502 0.04328027972573454 4.047156845674895e-23 -6.971928375403706e-23 -1.8154906761631104e-23 9.28218038158908e-24 8.386179353017248e-24 1.776620618618086e-23 -0.09868883240392722 -0.07066011547308847 -0.04165264854036754 0.1471695383987285 0.3306065593757875 -0.11546735013709257 -1.907307585788178e-16 -0.01867113806774603 -0.42662506663276006 -0.11624918107055791 -0.03340078023384264 -0.20555626644743935 -0.11794553411493701 0.05710097285499309 0.16502233834066968 -0.24043122662983885 -0.4157976674918962 -0.384839920433274 0.03889366038878403 0.20936874100860492 0.17530776369911075 -0.2837209099921313 0.03239698365662825 0.07026696398395463 5.022348443008325e-16 0.09714676418323051 0.06920733690249059 -0.002612170732583054 3.1960788783001045e-21 -8.895732081280631e-23 -7.662928310990936e-24 1.0801780147888525e-23
27 -0.10972568826216214 0.03999018688546171 -0.0406478540060678 0.1818956915183225 -0.663642828751124 0.21221245148511964 0.3728318301450838 -2.0985093002191988e-15 -0.032087011542689635 0.12710943848427272 -0.0439041039110505 0.03784861388275428 0.13936338025958434 0.31557474912274047 0.07334936321449187 0.023698537784572034 0.07331187005050978 0.012268982099699679 -0.3604134021575249 -0.1778116818702133 0.0018074984445958597 -0.12092240508959387 2.1635916972226117e-09 -4.465209058863244e-09 2.415741145994027e-09 -1.2512207925916108e-09 4.48565137985558e-10 4.636936001478192e-09 -4.0813024245184156e-10 1.9937221962930422e-10 2.3782128187485125e-09 8.427247845229417e-10 -0.24828166873892446 -0.26032820597418566 -0.18142424074319366 -0.14736463444470788 -0.7304489716322969 -0.10000570649301903 0.31097871965456975 -4.849151886655378e-16 -0.07705007582896602 -0.02677496252063688 -0.2213436200686804 0.09040988442726325 -0.08917095073350548 0.18315441875200558 -0.05346699166406795 0.11550448591988792 0.0406288047031139 -0.008725091628465088 -4.964822457240236e-16 0.14777991497817272 0.06016818809191351 0.10077768862726116 -0.03960637996892131 -0.08991632191044124 -0.027167043354834945 -0.0464590944210235 -0.015395782281782126 -0.06346743971512386 -0.0038526791299576947 3.385191224766153e-23 2.426373513207075e-23 -5.0060457615525055e-24 -0.12723136591048015 0.14953539372918506 0.17172546238417727 0.19002197587489525 -0.8492227390842423 -0.01968088248028083 1.3031877558736166e-16 -0.1046118149534244 -0.008421543233872416 -0.03887147735628188 0.08369506883513067 -0.013550971577454798 0.0666164887614497 -0.1665478973141182 -0.03695605897071816 -0.1934618966928929 0.193798417815277 0.16189897599222858 0.11311103863003291 0.005322056327338311 -0.016338814475455696 -0.07637478366683949 0.019445996735453105 1.067723837080979e-16 0.018598804278696292 0.013705657048254188 1.7119058102913783e-24 -1.2402750888170908e-23 -6.67597129617894e-24 -7.226464217024824e-27 6.4678539871388244e-24 1.0184330016402426e-23 -0.25711070308904227 -0.27935092012364665 -0.20450679692823323 0.09286637718145893 0.7960810834198001 -0.1767526770151757 -1.8562006085825553e-16 -0.09170690702729573 0.005481905586135147 -0.13738900393517292 0.10947024674744216 -0.022528420431097616 -0.10874626860057882 -0.05803142369584427 0.17567290409587957 -0.09649066306644784 -0.12811161453965367 0.050468113733654445 0.0416231009963026 0.006181254268684941 -0.10375542536923792 0.07858392289452326 -0.042664666590126084 0.06690481364232763 -1.578065044440701e-16 -0.02151858433000353 -0.023219495513802597 0.016783319329306247 8.108830985356806e-22 6.450734396165134e-23 -7.664353944672968e-25 -5.859584663447324e-25
16 -0.05541972111613499 -0.1710700479965012 0.2083053039243237 0.3164792645755954 0.12766924323006804 0.004463613461901307 0.033560529505881724 -1.1187147531318605e-15 0.0055668154947865894 -0.031309923995584944 0.15340788530964766 -0.14689837889398652 -0.24668105545747976 0.48308826950829753 -0.5152454741492701 -0.15847284312663615 -0.017119537494134387 -0.4063561871973112 0.0625652544547386 0.026331029844591687 -0.0745296249602861 -0.012049800228270699 5.2216830372182664e-24 1.6918915033924908e-24 -1.455597829624487e-24 -3.072527767762301e-24 -2.9662863622629013e-24 3.701878283439657e-25 -3.597326650084972e-25 -1.7887900314476616e-24 -1.2155105648616064e-24 1.3746803402779432e-25 -0.22989609934031868 0.44508035421935616 -0.4426595220875657 0.26670244715580443 -0.04311105831342715 0.059297583441202575 -0.08029441943728705 -1.460049624372068e-16 0.0012679032484098666 0.05467973654712738 0.122054738134392 0.2161916362583858 -0.468990828517539 0.07073858620595071 0.24789160531076732 -0.04511889221714904 0.11355319524291721 0.10962484882923917 3.0904088958580624e-16 0.06871831494168407 -0.27594070623377415 0.01611618101841067 0.037037001330369634 0.06236528537354009 -0.05251305767741195 -0.052102781834580246 0.005063213010883481 0.005065806328492591 -0.01611667945239512 1.5811442137727648e-23 1.3352629750859678e-23 9.833337457250898e-25 -0.10845695298713308 -0.4177765089792312 0.5763556186775431 -0.03170887749954279 0.06727409371764524 -0.008435609662206564 1.582066765878797e-16 0.06617024881080341 -0.0030445310829725256 0.0005114607837756694 -0.1707389124759983 0.16414090448560986 0.5361524793461715 -0.11903451790616677 0.24055223396448994 0.1188587840390318 0.1563378133277606 -0.031976481566136604 -0.07540850980285853 -0.08951136018487034 -0.02777588122066551 0.030522915666115376 0.025816523341921586 -9.463883319691296e-17 0.016551015896336688 -0.0013493406905026547 1.4167518226341953e-24 1.5583462968849707e-23 -1.3045906114377044e-24 -6.3663124298300224e-24 -7.819557220502935e-25 5.476099873557915e-24 -0.19729026115972967 0.4614697439165707 -0.5909304164901678 -0.026315785554924195 -0.051239731630985476 0.05139993044339566 -1.3814600911574063e-16 0.007035774239898203 -0.1360006000021251 0.17480529717650514 0.04158898725381034 0.40779523859883793 0.19975692991404786 -0.21428551043932226 0.22855283627288264 -0.0276099972025405 -0.001043761590344054 -0.032254181713411635 -0.11296264454082168 0.013340378577185565 -0.13238889964042208 -0.03163528342356518 0.05812087463919016 -0.018598080699876635 -7.187430901724138e-17 -0.0014455934167793558 0.027509661693136848 -0.004914644807437462 1.4806250012524275e-22 -4.9457631347592755e-23 -2.4249741007712256e-24 2.398427600579091e-24
33 -0.8322522290177576 0.40465580039887816 -0.04152121536034752 0.002919117733593044 0.20871218585829415 -0.07487931693400918 0.17220596887764356 -2.1005428346669326e-15 0.0028649192845751213 -0.06776271714418457 -0.01686056505939812 0.044032339256806045 -0.10590309273356989 -0.05651753240396958 -0.01053608565500418 0.025422550035010785 0.16721776113236952 -0.016972110153742895 0.01214490419971403 -0.11185455981998958 0.0013308043877243295 -0.012414439301911323 -1.334765089746747e-24 1.893138214297902e-25 3.8626102216148887e-25 8.932352337747987e-25 -4.4663807008718885e-25 1.248818869232624e-25 2.4479191186882176e-25 2.254325639334198e-25 -6.892342670022007e-26 1.2918613528490236e-25 -0.5757986144240466 -0.4504881602048096 -0.3043892489383681 -0.36108919583285987 0.25762120886521406 -0.0863307135412694 -0.20655528645513124 2.1548598187808628e-16 -0.242208743520827 -0.054374502556889796 0.09439761222208887 -0.07736107160480124 0.014380500851904635 0.06763696994131728 0.07488681326845682 0.07005122152030795 -0.00999821529483869 -0.14318119970500154 3.156979942098989e-16 -0.045687040085901146 -0.07286118403163903 0.07163790670829112 -0.022503860669910454 -0.00047483954484393083 -0.009682212170366087 0.020052162257342125 -0.005717759187103614 -0.0036019073677003074 -0.0005420580300320459 7.252727609066574e-25 -2.3692514185737025e-26 -2.949498805673815e-25 -0.867582347223806 0.4429018706436282 0.08412988117476887 -0.06702127229793343 0.06253374936136886 -0.01597801099370217 5.2769110119109146e-18 0.08361724995751751 0.0754603724430409 0.05241611854623605 -0.014701044461573097 -0.03532212784097576 0.008839099514645217 -0.015160224844345416 -0.015274781366971904 0.07866627297338548 0.013462927203860291 -0.04070109316364788 0.09838260395091065 0.010003764503720902 -0.0075455798076286525 0.0011136719070567519 0.009194633718409279 -4.91472205321915e-17 0.0040660794485435576 -0.00024234685274566325 3.44203119889652e-25 1.8482195980543306e-24 1.393492495330486e-24 -1.4004481973318785e-25 2.0589320600353096e-25 2.7120494173312297e-24 -0.7742180216788891 -0.5422279633766465 -0.08223726448728055 0.22627808844823427 -0.10962763742294429 0.09002731778303918 -6.153435826166848e-17 -0.024277856252823332 0.08378837418265733 0.0603888905226971 0.02268051260451624 0.042883475344672434 0.01680446393694095 2.601945608334974e-05 -0.04155968416101165 0.02438730279685784 -0.03555098933583794 -0.03485199645738796 0.06160970964971174 -0.06446822123462022 -0.010603000815152478 -0.011257361916499849 0.028402389789516005 0.025609472250722153 -1.9101758520835075e-16 -0.010052970655073313 0.00629509692484076 -0.0003558341674050897 -2.9413191922931277e-25 -6.018517683105353e-24 -6.089929055685429e-25 6.44738633640865e-25
14 -0.056053556209559735 0.0295771860622837 -0.18139448624290325 0.16328626379186054 -0.1563019311901925 0.08871047468102632 -0.04740711376017438 -6.926615206560907e-15 0.1201620802331215 -0.5718663160255499 0.0564819946246992 -0.38618449784568437 0.40774738355466195 -0.19472337995898376 -0.182711443359929 -0.19243240964493472 -0.12986755676797637 0.020663204269032585 0.20174379347817686 -0.25603386311721477 0.04269594575524001 -0.09007019022887669 5.4003982611459204e-11 -1.7563033798417982e-09 -3.0378689537934268e-09 -2.0550688145128334e-09 1.1682930042607635e-08 3.773087770083945e-09 -9.82205467642551e-09 -1.949459120019556e-08 -1.717599088858391e-08 2.2672994418800474e-08 -0.2353089484301894 -0.37516255345517135 0.1046257136852298 0.7496685054498786 0.1444426970968571 -0.3699111638728746 -0.004112872109061065 -5.62407004146049e-17 0.076433147225136 0.04034176317230345 0.0697481600062692 0.0035834628659306544 0.0023306160622406443 -0.12986221787564436 -0.0936315185407439 -0.10337779662617126 -0.06174421981998723 -0.035746372849880914 -2.366484935863752e-16 0.0800474326940865 -0.05847848171578832 0.029868319898120294 -0.014365830256544731 -0.06769533435372953 -0.047524048420090254 0.016264578521254687 0.034504318523950694 -0.006139536785377144 0.01406917120449343 1.4033210905243046e-08 -1.714535782306698e-08 3.012402798196236e-09 -0.043241203280594734 0.06254823859452682 0.048063304027191125 0.19815936542972015 -0.013182707626463272 0.3843487208071349 -3.965856914574756e-16 0.5101189549808332 -0.36875308795448464 -0.3523344295679844 -0.047114180540164835 0.29430509611336414 -0.13403212454365887 0.024384245139674115 -0.2359343235551711 0.2883655170124958 0.06030140324926556 0.07032594601767339 -0.11010139622297502 0.06638239092652992 -0.03553304251934631 -0.05303633524339139 0.07564151041377841 -8.347952494822719e-16 -0.006437189097418548 0.05691803785464042 -1.1944843898811317e-08 -2.1815849167951125e-08 3.246456575353758e-09 -4.53596373301583e-08 -9.397285609737821e-09 4.6908923679428816e-08 -0.13989286159048106 -0.20808257237256675 -0.13470922293967103 -0.572184305160394 0.07824372122499909 0.4696880647793115 -2.626218795190011e-16 -0.321492166204951 0.009689924915386916 -0.12244213384578069 -0.4331568285373643 -0.05111858403070568 0.0172798308750849 -0.19491820460036124 -0.0039799486101988225 0.05962852075778278 -0.09082453619889937 0.03504135146830815 0.002752493185490781 -0.009202203260802703 0.006768332441041691 -0.05481482607810622 -0.007727336792173437 -0.018416281327891353 1.539865787292392e-16 -0.031059758308889573 -0.018233545760996426 -0.001104801594030756 5.255994747163943e-09 -1.0779541300274301e-09 -1.0580604850266788e-08 8.161367127097933e-09
15 -0.05605355620955974 0.029577186062283704 -0.18139448624290327 0.16328626379186056 -0.15630193119019253 0.08871047468102633 -0.04740711376017439 -6.948511439153571e-15 0.12016208023312153 -0.57186631602555 0.05648199462469916 -0.3861844978456844 0.407747383554662 -0.19472337995898376 -0.18271144335992903 -0.19243240964493474 -0.12986755676797646 0.020663204269032533 0.20174379347817695 -0.25603386311721477 0.042695945755239995 -0.09007019022887662 1.148129725847202e-09 -3.192584117199816e-09 -1.0130343267749453e-08 -3.659836239320533e-09 -8.164571427918996e-09 -4.516111934870338e-09 2.5853442881829854e-10 2.154055199345563e-08 9.99404650561513e-09 1.6772798010682104e-08 -0.23530894843018937 -0.37516255345517135 0.1046257136852298 0.7496685054498785 0.14444269709685706 -0.36991116387287454 -0.004112872109061064 -4.1260314209924436e-17 0.07643314722513599 0.040341763172303445 0.0697481600062692 0.0035834628659306314 0.002330616062240634 -0.1298622178756444 -0.09363151854074389 -0.10337779662617125 -0.06174421981998722 -0.03574637284988092 -2.5570440974879064e-16 0.08004743269408648 -0.05847848171578831 0.02986831989812025 -0.014365830256544703 -0.06769533435372946 -0.0475240484200903 0.016264578521254642 0.03450431852395077 -0.006139536785377057 0.014069171204493292 -1.7383139658673367e-09 3.2380474273765994e-11 -2.8964080295198592e-08 -0.04324120328059474 0.06254823859452684 0.04806330402719113 0.19815936542972018 -0.013182707626463274 0.38434872080713495 -2.593535542896511e-16 0.5101189549808332 -0.36875308795448464 -0.35233442956798444 -0.04711418054016482 0.2943050961133642 -0.13403212454365884 0.0243842451396742 -0.23593432355517102 0.28836551701249563 0.0603014032492656 0.07032594601767321 -0.11010139622297502 0.06638239092652963 -0.035533042519345893 -0.05303633524339129 0.07564151041377892 -6.161036868646326e-16 -0.006437189097418752 0.05691803785464048 5.38164010644634e-09 4.7434995576159556e-09 -1.6081249222819663e-08 5.3781437084567876e-08 2.0040077998832154e-08 3.774380961242702e-08 -0.13989286159048092 -0.20808257237256653 -0.13470922293967086 -0.5721843051603933 0.07824372122499901 0.469688064779311 -2.5432315154576543e-16 -0.3214921662049507 0.009689924915386904 -0.12244213384578055 -0.4331568285373637 -0.05111858403070563 0.0172798308750849 -0.19491820460036102 -0.0039799486101987835 0.05962852075778276 -0.09082453619889921 0.03504135146830805 0.002752493185490824 -0.009202203260802662 0.0067683324410417545 -0.05481482607810607 -0.007727336792172864 -0.018416281327891165 -7.333049318976334e-18 -0.03105975830888778 -0.018233545760994622 -0.0011048015940280124 -6.016510754936512e-09 -8.889024938820449e-10 4.6488268327332936e-08 -2.1032494022013766e-08
18 -0.056053556209559735 0.0295771860622837 -0.18139448624290325 0.16328626379186054 -0.1563019311901925 0.08871047468102632 -0.04740711376017438 -6.926615206560907e-15 0.1201620802331215 -0.5718663160255498 0.056481994624699154 -0.38618449784568437 0.40774738355466195 -0.19472337995898384 -0.182711443359929 -0.19243240964493472 -0.1298675567679764 0.02066320426903253 0.2017437934781769 -0.25603386311721477 0.04269594575523997 -0.09007019022887655 4.185076350255497e-09 1.2130222265590217e-09 -3.759190799767368e-09 -3.8023583435119e-09 3.4095670183651385e-09 5.951352740513368e-09 -2.4650281274375372e-08 5.6208272138873466e-09 -5.117269943811703e-09 -2.589151794921538e-08 -0.23530894843018943 -0.3751625534551714 0.10462571368522981 0.7496685054498787 0.1444426970968571 -0.36991116387287465 -0.004112872109061065 -4.126031420992445e-17 0.076433147225136 0.04034176317230346 0.06974816000626921 0.0035834628659306097 0.0023306160622406343 -0.12986221787564436 -0.09363151854074392 -0.10337779662617128 -0.061744219819987255 -0.03574637284988093 -3.382800464525912e-16 0.08004743269408651 -0.05847848171578833 0.029868319898120277 -0.014365830256544716 -0.0676953343537295 -0.04752404842009028 0.016264578521254566 0.034504318523950785 -0.006139536785377155 0.01406917120449335 5.2444719285663205e-09 -9.201327123142853e-09 1.1918837531832208e-08 -0.04324120328059481 0.06254823859452693 0.048063304027191216 0.1981593654297205 -0.013182707626463296 0.3843487208071356 -6.187710563958591e-16 0.510118954980834 -0.3687530879544853 -0.35233442956798505 -0.04711418054016492 0.2943050961133646 -0.134032124543659 0.024384245139674243 -0.23593432355517144 0.2883655170124962 0.060301403249265674 0.07032594601767335 -0.1101013962229751 0.06638239092652999 -0.03553304251934687 -0.05303633524339171 0.07564151041377924 -3.866246480640609e-16 -0.006437189097418273 0.05691803785464116 -6.97187891810694e-10 -8.463325481147496e-09 -1.018519891152946e-08 -2.476785943567204e-09 1.2735632748738361e-08 -3.1635332401533896e-08 -0.13989286159048095 -0.20808257237256658 -0.1347092229396709 -0.5721843051603934 0.07824372122499902 0.46968806477931113 -2.21128239652824e-16 -0.32149216620495075 0.009689924915386908 -0.12244213384578062 -0.4331568285373639 -0.051118584030705586 0.017279830875084924 -0.19491820460036108 -0.003979948610198802 0.05962852075778277 -0.09082453619889932 0.035041351468308043 0.0027524931854908475 -0.009202203260802642 0.006768332441041817 -0.05481482607810625 -0.00772733679217307 -0.018416281327891366 2.0374299412724286e-16 -0.03105975830888903 -0.018233545760995826 -0.0011048015940298109 1.258911664787226e-09 2.9555150198801422e-09 1.5290792525487082e-08 3.9793910830421086e-08
20 -0.056053556209559735 0.0295771860622837 -0.18139448624290325 0.16328626379186054 -0.1563019311901925 0.08871047468102632 -0.04740711376017432 -6.9704076717462336e-15 0.1201620802331215 -0.5718663160255499 0.056481994624699196 -0.38618449784568437 0.40774738355466195 -0.19472337995898376 -0.18271144335992906 -0.19243240964493485 -0.12986755676797646 0.020663204269032502 0.20174379347817695 -0.2560338631172147 0.04269594575523995 -0.09007019022887652 -4.160113284430375e-09 -5.012916161707766e-09 5.278639952099449e-10 1.3193522432615788e-09 -7.405208753770134e-10 -7.4520501978983e-09 1.3749998446494709e-08 -2.3546391686720196e-08 1.8780551813999066e-08 -1.174879120857861e-08 -0.23530894843018943 -0.3751625534551714 0.10462571368522981 0.7496685054498787 0.1444426970968571 -0.36991116387287465 -0.004112872109061065 -4.126031420992445e-17 0.076433147225136 0.04034176317230346 0.06974816000626921 0.0035834628659306323 0.0023306160622406447 -0.12986221787564436 -0.09363151854074392 -0.10337779662617128 -0.061744219819987255 -0.03574637284988091 -3.382800464525912e-16 0.08004743269408655 -0.05847848171578833 0.029868319898120256 -0.014365830256544749 -0.0676953343537295 -0.04752404842009023 0.016264578521254666 0.034504318523950694 -0.006139536785377244 0.01406917120449342 -8.063980908628836e-09 1.3493651530305902e-08 4.695046030113948e-09 -0.04324120328059474 0.06254823859452684 0.04806330402719113 0.19815936542972018 -0.013182707626463274 0.38434872080713495 -6.187710563958581e-16 0.5101189549808332 -0.3687530879544847 -0.35233442956798444 -0.04711418054016484 0.2943050961133641 -0.1340321245436588 0.0243842451396742 -0.23593432355517102 0.2883655170124957 0.06030140324926557 0.07032594601767322 -0.1101013962229749 0.06638239092652988 -0.03553304251934681 -0.05303633524339162 0.07564151041377909 -3.8564396841106637e-16 -0.006437189097418249 0.05691803785464107 -1.7793729745918343e-09 -8.828829782528067e-09 -1.2183710603034471e-08 1.5178568095983975e-08 -5.874251771581085e-08 -2.453743021888287e-08 -0.13989286159048095 -0.20808257237256658 -0.1347092229396709 -0.5721843051603934 0.07824372122499902 0.46968806477931113 -2.5017378755914784e-16 -0.32149216620495075 0.009689924915386908 -0.12244213384578062 -0.4331568285373639 -0.051118584030705634 0.017279830875084903 -0.194918204600361 -0.003979948610198775 0.05962852075778276 -0.09082453619889931 0.03504135146830808 0.0027524931854908475 -0.009202203260802663 0.006768332441041858 -0.054814826078106255 -0.00772733679217302 -0.01841628132789128 3.3046636459403373e-16 -0.03105975830888855 -0.018233545760995416 -0.0011048015940292647 -1.2110740939366527e-09 5.825714021757168e-09 -2.1372024975733935e-08 -3.984489624585809e-08
22 -0.05605355620955977 0.02957718606228372 -0.18139448624290336 0.16328626379186065 -0.15630193119019262 0.08871047468102637 -0.047407113760174376 -6.970407671746238e-15 0.12016208023312158 -0.5718663160255503 0.05648199462469926 -0.3861844978456846 0.4077473835546622 -0.19472337995898387 -0.18271144335992912 -0.19243240964493485 -0.12986755676797654 0.020663204269032516 0.20174379347817709 -0.25603386311721493 0.04269594575523998 -0.0900701902288766 6.270092260150288e-10 -3.052540624581066e-09 -4.206977388416394e-09 -4.671245919452789e-09 -2.384170052674217e-09 -7.669757818040448e-09 6.272286671847757e-09 9.542532655647626e-09 2.8233844858683703e-09 8.533404202030305e-10 -0.2353089484301894 -0.37516255345517135 0.1046257136852298 0.7496685054498786 0.1444426970968571 -0.3699111638728746 -0.004112872109061065 -1.1299541800563477e-17 0.076433147225136 0.04034176317230345 0.0697481600062692 0.0035834628659306093 0.0023306160622406547 -0.12986221787564436 -0.0936315185407439 -0.10337779662617126 -0.06174421981998723 -0.03574637284988093 -4.78023431643638e-16 0.0800474326940865 -0.058478481715788344 0.029868319898120232 -0.014365830256544723 -0.06769533435372953 -0.04752404842009026 0.016264578521254642 0.03450431852395071 -0.0061395367853771705 0.014069171204493393 -9.47538795931323e-09 1.2820652941630144e-08 9.337793935056193e-09 -0.043241203280594775 0.06254823859452689 0.048063304027191174 0.19815936542972035 -0.013182707626463286 0.3843487208071353 -5.142132376013256e-16 0.5101189549808336 -0.36875308795448497 -0.3523344295679847 -0.04711418054016493 0.2943050961133643 -0.13403212454365893 0.024384245139674198 -0.23593432355517133 0.28836551701249596 0.06030140324926583 0.07032594601767311 -0.11010139622297511 0.06638239092652996 -0.03553304251934645 -0.053036335243391707 0.07564151041377881 -6.710217474322916e-16 -0.006437189097418072 0.056918037854640564 -7.444948797672616e-09 -5.54233052171135e-09 1.578315691564847e-08 -1.1233119117550303e-08 4.313102221097207e-08 -3.009336159722439e-08 -0.139892861590481 -0.20808257237256667 -0.13470922293967094 -0.5721843051603936 0.07824372122499906 0.4696880647793113 -2.169788756662064e-16 -0.3214921662049509 0.009689924915386911 -0.12244213384578063 -0.43315682853736415 -0.05111858403070566 0.017279830875084914 -0.19491820460036116 -0.003979948610198795 0.05962852075778274 -0.09082453619889932 0.035041351468308155 0.002752493185490757 -0.009202203260802667 0.0067683324410418196 -0.054814826078106144 -0.007727336792173057 -0.018416281327891373 5.680607990501293e-17 -0.031059758308889053 -0.018233545760995805 -0.0011048015940297625 7.126784369160222e-10 -6.8143724177277844e-09 -2.982643102681931e-08 1.2922112310352841e-08
23 -0.15797943045557758 0.11107154430334597 -0.34541856592428166 0.367231477815482 -0.13217946186594384 -0.42045112111784394 -0.5307402046993347 -2.1446548353337155e-15 0.12845010302669543 -0.2380796043497759 -0.10457803081962866 0.07136445450091325 0.01518175810111326 0.28448107325273847 0.19145935519297785 -0.003436349831710631 -0.03086417549359344 0.00971846011191912 -0.09059776885681972 -0.10475655587454286 -0.036283100570639784 0.06334279405564079 -2.383915544361794e-09 2.3061802194893807e-09 3.918765549963407e-09 -3.718339354791125e-09 -5.977485604071857e-10 -3.1727735970898623e-09 -1.439434752958385e-09 -8.555579580551412e-11 2.4575802298994483e-10 4.166909369061418e-10 -0.3461411136588868 -0.4624613678679134 -0.11005590826170107 0.278662382468209 0.35004398360193884 0.4645364271597497 -0.03151442387776459 2.0314214811370032e-16 0.3312469976069351 0.036408508774891116 -0.19202559416523501 0.20580631419275372 0.06563429748933454 0.05853944542629683 0.039239853943219064 0.036565341100885516 0.04657228568241933 0.0164462285283564 -2.5119450791392747e-16 0.07276386565881604 0.047087464372154914 -0.030677560839755934 -0.13460026049238788 0.08449559200041122 0.003108756677864223 0.001469889611291406 -0.003414940654595034 -0.012800987634815115 -0.002130831765485202 1.2989585108248227e-23 8.925223143097269e-24 -8.134585414185019e-25 -0.19824769330504316 0.22581535346276443 0.16280642028350206 0.7098386520731584 0.3522695727466077 -0.0887934059561729 1.4880897314276555e-16 0.08993135217649514 -0.41424616982918083 0.13844383932750712 0.06992454501629704 -0.12202536380487804 0.09762083205170902 0.03625166933396121 -0.06649754749178619 -0.056800623692329105 0.020582371275862148 0.053231997023590966 0.011997768624722202 -0.005717676317220772 -0.028863581980400295 0.032846445965709486 -0.05887592063808889 1.0442272030265218e-15 0.029147235912869305 0.023714045676772526 1.119321439587971e-23 -1.7786112118411667e-23 6.031961816859112e-24 9.411429233570717e-24 2.6267161579088315e-24 4.41733609606169e-24 -0.3901882299987439 -0.45980924427140507 -0.25492361429327803 -0.45426712240349504 -0.4236407249993943 -0.1649024112112402 2.299670055219822e-16 0.013163439197014192 -0.16238666944460026 -0.2820886100612603 0.08740143496511237 0.03549289193919122 0.06472400419863841 -0.0471810840171759 0.003926564507826546 -0.15876349591805003 -0.0022582688983897223 0.022115225429378868 0.03540038720420278 0.02431034677153776 0.0524981106875578 0.07648852263343811 0.011767676967833797 -0.006094290274405186 1.0505048341802844e-17 -0.01665328298784758 0.015068957977515781 -0.006539931261435463 -6.173333759849825e-22 -1.7899158476548992e-23 -7.8041761881188325e-25 1.900104013993141e-24
29 -0.14593799809560862 0.12079193791945561 -0.054785379880705073 0.12659197339914344 -0.15683898408892852 0.07972213207085838 0.42983787229360415 -4.932828961849446e-15 0.005220959567513535 -0.668687067458311 -0.005746002872342077 0.30998800745940347 -0.11732955961779958 0.030920460861238022 0.031058692921902477 0.13759722970163837 -0.2726504774405825 0.0014038723677246596 -0.011201366691473341 0.27631121302575357 0.003641224774032331 0.02505428993770969 2.8207826992582194e-24 4.429703463199902e-24 -8.204042614445417e-25 -2.4546420607541336e-24 -5.854648369802478e-25 2.5675189619958713e-24 8.817459758015064e-26 -7.555155588915641e-25 2.2652333491617197e-24 4.1189030822071896e-25 -0.26833009449354633 -0.3883405569760854 -0.08399780665140316 0.3363893232171882 -0.1775921093230217 -0.400128141095251 -0.010517556064179064 2.0421786408119927e-16 -0.3186507607762253 -0.08291794519076316 0.030847359223763575 0.2892037144593985 0.2936450492890935 0.23439585838088636 0.30644222902994867 -0.0006785193062996492 0.027301404046089165 0.11685849083651971 -1.3824936788223663e-16 -0.009888108785494632 0.0952830500858519 -0.07975682882057863 0.06240732747684766 0.032685465787452364 0.027244763138558534 -0.020562356128365038 0.024014465749420108 0.022208004846291332 0.0027986306542466676 -1.1799919404106456e-23 -7.322764809498184e-24 2.204097759917769e-24 -0.15188953060098856 0.20929671936042832 0.17775648574151018 0.06811142247742322 -0.42032680301661957 0.44582511566744504 -3.8010986275670634e-16 0.46800114389096426 -0.012247173874603357 0.4316344901684645 -0.2611668325026947 -0.0952155290978714 -0.04736628069858619 0.05068609778372708 0.07650793449155384 -0.12126806025162104 -0.07817405428839704 -0.026004407814558008 -0.07851190665252847 -0.013654638309774493 0.007784497135963009 -0.00511263021479064 0.0035837681344797877 -1.6496164007133151e-16 -0.008333610545160412 -0.0040858458246323375 -1.4462025211409966e-24 4.399329308996878e-24 -1.351156660922865e-24 -2.0364874560246247e-24 -6.572547293078192e-25 -1.4511486336993871e-24 -0.31471305860826326 -0.3935588690366499 -0.25176580680139293 -0.32065215833810623 0.39214013468416054 0.3198229469512336 1.720984871526932e-16 0.04892374743572035 0.3241795824166602 -0.10176549220205607 0.059340635842949525 0.24365535342903025 0.14685393169115837 0.29471131830024166 0.06743378050845081 -0.09495764292512643 0.1011243223144374 0.009163860658232116 0.0025784057598669317 0.04127415975754645 0.05936170371956979 -0.06531531121484228 -0.017651462592536565 -0.02248675076070968 1.9483424642843842e-16 0.009865484935555611 -0.01901044422979873 0.0001144492058263035 -2.995000301565421e-22 9.131077294392094e-24 2.9118748134799956e-24 -2.317611643657196e-24
25 -0.13725953078211242 0.06690915541300706 0.010731811886008358 0.22846391103515853 -0.581522427073924 0.009614095907200953 0.41762795130712244 8.311625262510475e-15 -0.20277129008702896 0.284209909203062 0.04892764910657048 0.25639984501224106 0.1224287426553377 0.09527394179396172 0.07404893736442864 -0.30561971997662196 0.008512399716900234 0.0523538068384845 0.28129414002102676 -0.08663379740037938 -0.025078700714916802 0.09297962844988066 -2.0890780235016626e-09 4.311428134608873e-09 -2.3325434947098447e-09 1.2081289938886837e-09 -4.3311664260754494e-10 -4.477240834999872e-09 3.9407431694577107e-10 -1.925058794868688e-10 -2.2963076356944775e-09 -8.137015082221916e-10 -0.2448509337269813 -0.2821934142114711 -0.23855638511160446 -0.1557757779634526 -0.5924008819648535 0.07297622336321845 0.3745897851259826 -5.294519553257065e-16 -0.2305734156443063 0.048637842579575166 -0.02985793524214753 0.22038516184857618 0.07950035633225554 -0.2150520839923336 -0.12840958138918948 -0.09836920738054739 -0.18043740368789285 0.04763504583258012 5.611548838089102e-16 -0.08965254140542767 -0.1660659925040656 -0.0999645951854029 -0.08970732876138192 0.034224375140805646 -0.025277339039758866 0.07727319975277251 -0.0433912132259994 0.0276234626375139 -0.004889566539179194 -9.952670259687689e-24 -7.70680665674172e-24 1.4584892779208922e-24 -0.1202275353302018 0.15497827135551404 0.18743311423708986 0.2304243491372016 -0.7808293268115793 -0.2206285745680967 1.1084423082266751e-16 -0.1685911545566275 0.17937898611893707 0.07848034808222137 0.008497441743201717 0.03872653222943522 0.04944887446801088 0.17072743276650681 -0.23989841915842297 0.1835339137415978 0.057901119616392355 -0.03497109412560294 -0.09172065475034272 0.02247419543469684 0.006808899142831971 0.09251012518838671 -0.03922408891607835 2.3166381852250154e-16 -0.009769512882687303 -0.006120808424299374 9.57897118750968e-25 6.04880318726389e-24 1.0458428894605622e-23 5.024499895743228e-24 -5.06174622868778e-24 -9.775587028663352e-24 -0.17833581466405063 -0.19310521090639748 -0.16827403661065635 0.25194278160167405 0.6307783468470918 -0.4885806931043346 -6.559994548512827e-17 -0.14505064965875247 0.17477109790384057 -0.012153627173578119 -0.1912862545055771 0.049497595218091134 0.10064089929612431 -0.10599074456226648 -0.23928663660729768 -0.012119592850285618 0.071508837497506 0.020831534311751002 -0.10869685177469782 0.03657961630586379 0.08959618384748436 0.03064702417392464 0.033979097752221514 0.02421141486237651 1.7058198297373751e-16 -0.021620432627446385 0.05379515065809526 -0.014601466746675755 -6.235712938047184e-22 -7.023342235162711e-23 -3.343576608310124e-24 5.809376765808694e-24
24 -0.13651460159412124 0.042695052196780985 -0.26735202622613413 0.3252469910881324 -0.1534431137258871 -0.4792226481995588 -0.37246777991549257 9.112344363104882e-15 -0.08228293240359887 0.15289040626914166 0.02351428704000452 0.49049025331020984 -0.049788138232967225 -0.19250282872274624 -0.2612795423253206 -0.06871646500337171 -0.128425756641191 0.023745049814098723 -0.03683262603935662 -0.0018811457800055353 0.025775035222098296 -0.08637447047975264 2.5095888320591737e-09 -2.427755520632649e-09 -4.12535179063117e-09 3.914359693093951e-09 6.292601745582886e-10 3.3400332510691226e-09 1.5153176835672293e-09 9.006605547720217e-11 -2.5871369115537137e-10 -4.3865770503203104e-10 -0.24022949394267454 -0.25470205219242237 -0.16494289980589014 -0.09653789727906462 0.052757843364654056 0.615087188464352 0.26991644475811755 -2.6565232724802236e-16 0.2211972126813695 0.17279433020257692 0.3430859146448816 -0.03407113106142914 0.28840345604883844 -0.1009586047395863 0.2076403647423394 -0.05846271732126196 0.10142166173065797 0.09904129327153681 9.936301560898202e-18 -0.003501044704301671 -0.0234297746405997 0.02568203334724786 0.09333589331873623 -0.12995262109059505 -0.03862696888412545 0.004996187570550592 -0.028149101651193432 -0.011194801042866551 -0.0036934974726800856 2.810928013576612e-24 2.6965875947109257e-24 -1.2606510262327243e-24 -0.1413766006866533 0.14144535342186193 0.11708295697780537 0.6173691858168417 0.20425177093188768 -0.45012668769382863 2.970569124780831e-16 -0.2809187352602312 -0.07494931991434445 0.2668218251048187 -0.2719048521149018 0.08573459768464915 -0.2310631696952497 -0.032731176088241436 0.08309790028059022 0.054626866275679024 0.09701797931231214 0.02515406143207766 -0.05142452037941998 0.011235220651929992 0.03250105248390088 -0.03973833076416894 0.05284423686878216 -9.650333151160772e-16 -0.027956325093971984 -0.020839904914411286 -1.1978499858649059e-23 1.769677283677755e-23 -8.017130858170199e-24 -9.180240700056632e-24 -3.1271588561504933e-24 -4.399749970475381e-24 -0.14866668379968762 -0.1669572559428659 -0.11031407207185863 -0.03082961764112663 -0.3525429725772899 -0.7362260499311153 -5.622725941885493e-18 -0.18815909487971608 -0.09618587385440046 -0.09905034552450646 -0.31959256683534515 0.10137608941857815 0.046763109286870885 0.27705411208847147 0.06062713117179609 0.09378306232731393 0.014771059498644538 -0.009704440347302936 -0.03149155262985069 -0.002282351467120266 -0.07486302030694257 -0.04376391291623102 -0.027171780094081468 0.048305325262393714 -1.416775643366853e-17 -0.002410374579408596 -0.015035415557161728 0.01249500464570814 8.97357457155147e-22 3.7267686941034933e-23 5.275504902841265e-26 -8.183045474707686e-25
26 -0.09691606840506842 0.08832747821018946 0.0071266178749687685 0.07863150606463834 -0.08391661047631217 -0.05338636599452811 -0.29319245605575567 -1.3959561420267842e-15 0.07811247758941248 -0.22102348880561465 -0.07529751284992546 -0.12397751461314988 0.1068483103768689 0.4766105682644496 0.4520434239857337 -0.018392727072309826 0.42203090766324747 0.007279602170968045 0.3270106520219417 0.27318387374417136 0.029318154227103103 -0.02968259837351116 3.212940350282591e-09 -3.1081719735187274e-09 -5.281546147284123e-09 5.0114202146579996e-09 8.056201796233256e-10 4.276129805231958e-09 1.940009162789851e-09 1.1530847608851055e-10 -3.3122224918477594e-10 -5.615983871363242e-10 -0.09226646303419699 -0.1365748282544728 -0.10326951675566486 -0.0777207509820265 0.17546680284902527 0.20602756510380568 -0.3073195111973942 2.4917556517780604e-16 0.29786978360288546 -0.02204345857844907 -0.5949570520042063 0.4132808915545953 -0.023424400405051102 0.08104345888979797 -0.0807886363734555 0.09691388942345285 -0.2857247106016221 -0.03238687118763382 6.022249704758607e-16 -0.11983163131418192 -0.09281390054872529 0.017582548575724936 0.18031424091733822 -0.11204054573374127 -0.0039951047999304354 -0.004050343688542718 0.0038788615481665702 0.01839423965556183 0.0013903236500427288 -1.7049350318306793e-23 -1.0464063789789775e-23 1.6056057497961293e-24 -0.04789465884242143 0.07202683475391 0.055752953217482026 0.03686695203950781 0.10580864654941534 -0.001765249741702688 -4.5929471412063934e-17 -0.043385968913486325 -0.386719900416252 0.15644370528988424 0.47546684686653023 -0.3720590672472281 0.4706478315134818 0.19404080847750796 -0.3311585420089857 -0.1092571144754278 -0.01662053757603773 -0.13467133978294998 -0.06249698907015264 0.021252995512401396 0.05534057475432184 -0.06494152024561774 0.13246841504060267 -2.387473950992311e-15 -0.07076125472253846 -0.055467583518010836 -3.3265757161368006e-23 4.481096428862913e-23 -1.462547345275438e-23 -2.404404377374292e-23 -6.593771894268852e-24 -9.881846629069062e-24 -0.04826536130352804 -0.07409632960377283 -0.04978949338288155 0.019139672765838184 -0.139084164686306 0.010243046151088599 5.726308890671802e-16 0.314422990248114 -0.11286264880612173 -0.4268035780049985 0.38623051179684875 0.004129196189348137 0.2507651017422067 -0.3914076215934149 -0.427572173007282 0.004870674984040156 0.1490530725419801 0.028693703966840154 -0.11192132205620461 0.02708216941653867 -0.07334579310181355 -0.22640812255118914 -0.06837180291179139 0.1585503361366446 1.172673131581305e-16 0.009479578333223545 -0.06492542309533185 0.030827666664937622 1.7701368958295928e-21 1.2263089472196178e-22 3.659877572729096e-24 -3.7089953616891325e-24
